#include <stdio.h>
typedef float float32;
#include "hifi_model_trained_hdr.h"



float32 filter[3][3][4][8] = {
	{{{0.206036, -0.105367, 0.213075, 0.232605, 0.173521, 0.226260,
	   -0.177556, -0.117982},
	  {0.032498, -0.092129, 0.032920, -0.229193, 0.084198, -0.184241,
	   0.048246, -0.169675},
	  {0.051173, 0.046467, 0.129707, 0.051920, -0.113903, -0.045324,
	   -0.068528, -0.097274},
	  {-0.141497, -0.137717, 0.144220, -0.227049, 0.205715, -0.122590,
	   -0.202477, -0.142163}},
	 {{-0.098655, 0.234348, 0.229276, 0.152892, 0.117777, -0.152280,
	   -0.045371, -0.212970},
	  {0.209596, -0.066443, -0.013341, -0.011738, 0.153216, 0.070790,
	   -0.129064, -0.110788},
	  {-0.080034, 0.150767, 0.112658, 0.017604, 0.059730, -0.160533,
	   -0.111379, -0.101062},
	  {-0.024577, -0.219209, -0.048142, 0.017467, 0.230872, -0.015923,
	   0.113249, 0.192689}},
	 {{-0.019513, -0.046348, -0.134489, 0.148985, -0.002603, -0.230945,
	   -0.115581, 0.090153},
	  {-0.024739, 0.149354, 0.111906, -0.013856, -0.164942, -0.198912,
	   0.206448, -0.069535},
	  {-0.042767, -0.164111, -0.188505, -0.133180, 0.140014, -0.044540,
	   -0.129137, -0.168711},
	  {-0.103147, -0.192671, -0.049169, 0.201783, -0.188955, 0.231790,
	   0.103725, -0.009352}}},
	{{{-0.077117, 0.184700, -0.159790, 0.020039, 0.040660, 0.166576,
	   0.113815, -0.127867},
	  {-0.160216, 0.158217, 0.207263, -0.110371, -0.104178, 0.041605,
	   0.135953, -0.198650},
	  {0.089581, -0.112291, 0.104723, 0.067737, 0.006014, 0.017485,
	   0.144763, 0.162143},
	  {-0.146505, 0.133132, 0.153717, 0.154114, -0.222004, -0.092229,
	   -0.232363, 0.191620}},
	 {{-0.129753, 0.171868, -0.011499, 0.111210, 0.045956, 0.076954,
	   0.180957, 0.025110},
	  {-0.054689, 0.078521, 0.125909, 0.092567, 0.160823, -0.136334,
	   -0.231292, 0.060139},
	  {0.069298, 0.117857, 0.219843, -0.178161, 0.020718, 0.048290,
	   0.214223, -0.170472},
	  {-0.079659, -0.221533, 0.120873, -0.145979, 0.128113, -0.128152,
	   -0.124411, 0.057437}},
	 {{-0.187736, -0.224187, 0.022760, 0.175474, 0.194431, 0.159611,
	   0.180438, 0.011878},
	  {-0.101893, 0.127429, 0.155446, -0.146486, 0.162282, -0.073906,
	   0.220557, -0.065277},
	  {0.088139, 0.151009, -0.208134, 0.174836, 0.019990, -0.161902,
	   -0.073521, 0.072077},
	  {0.154493, -0.040499, 0.212919, -0.062131, -0.123398, -0.010357,
	   -0.010817, 0.099251}}},
	{{{0.030008, -0.155588, 0.021950, -0.134167, 0.145535, 0.232107,
	   0.154241, -0.226179},
	  {-0.062024, -0.208709, 0.172135, -0.136219, 0.078690, 0.228221,
	   0.096542, -0.104670},
	  {-0.102802, -0.073842, 0.149044, 0.068275, 0.068243, -0.179616,
	   0.061594, 0.207623},
	  {-0.080884, 0.180768, 0.130617, 0.014162, -0.125710, -0.102603,
	   0.189711, -0.051999}},
	 {{-0.211133, 0.143278, -0.215351, -0.022880, 0.088885, 0.208754,
	   -0.133928, 0.148154},
	  {0.011904, 0.079982, 0.059877, -0.097074, -0.172814, -0.160274,
	   -0.150534, -0.051547},
	  {-0.116619, -0.112260, -0.025430, 0.009312, -0.025153, 0.214112,
	   -0.215723, 0.223162},
	  {-0.173331, -0.014520, -0.064267, -0.128444, -0.163829, 0.225811,
	   0.171425, -0.218334}},
	 {{0.040796, -0.083025, -0.188331, 0.213393, 0.109028, -0.012785,
	   -0.208123, 0.039913},
	  {-0.213355, -0.082420, 0.184349, -0.233689, 0.160105, -0.050271,
	   -0.041196, -0.095332},
	  {-0.089917, 0.199597, 0.049847, -0.059669, -0.186077, 0.061886,
	   -0.171143, -0.067978},
	  {0.220075, 0.023925, -0.079444, 0.170700, -0.107352, 0.137542,
	   0.149581, 0.134157}}}};

float32 transpconv2d_bias[4] =
	{2.7522812e-05,  5.0425049e-05, -1.1632799e-05 ,-2.1949878e-05};
