#include <stdio.h>
typedef float float32; 
#include "hifi_model_trained_hdr.h"


float32 gru_kernel_update[64][16]=
{
	{ -0.1434389054775238 , -0.20858648419380188 , 0.20759890973567963 , -0.02776789665222168 , 0.15212346613407135 , -0.21234440803527832 , -0.09062587469816208 , 0.055403608828783035 , -0.001324919518083334 , 0.13026399910449982 , -0.16424615681171417 , 0.022862611338496208 , -0.05567850545048714 , 0.18109729886054993 , -0.20459388196468353 , -0.11440355330705643 } ,
	{ -0.10140295326709747 , -0.06223341450095177 , -0.0051123290322721004 , -0.09523065388202667 , 0.011887258850038052 , -0.13814181089401245 , -0.1130405068397522 , 0.0843615010380745 , -0.15530157089233398 , 0.10030864179134369 , -0.04593179374933243 , -0.001453760894946754 , 0.01894260197877884 , 0.1454036384820938 , -0.18728965520858765 , -0.03423648700118065 } ,
	{ 0.18455679714679718 , -0.2059006243944168 , -0.19267240166664124 , -0.015999644994735718 , -0.2134934514760971 , -0.04158657416701317 , 0.14584526419639587 , -0.023615863174200058 , -0.06495440006256104 , 0.1715380847454071 , -0.052250515669584274 , -0.1111183613538742 , -0.20413517951965332 , 0.08356765657663345 , -0.1172843873500824 , 0.09469887614250183 } ,
	{ -0.13756901025772095 , -0.13828429579734802 , -0.18348932266235352 , -0.22664044797420502 , -0.009447993710637093 , 0.1249060183763504 , -0.10729794949293137 , 0.2302992045879364 , -0.08082641661167145 , -0.10697004199028015 , -0.02291896566748619 , -0.13820499181747437 , 0.03876768425107002 , 0.17936761677265167 , -0.09356332570314407 , 0.11574962735176086 } ,
	{ 0.018361613154411316 , -0.10012276470661163 , -0.19796457886695862 , 0.1311577409505844 , -0.21225115656852722 , -0.22429172694683075 , 0.16176775097846985 , 0.020182691514492035 , 0.17345750331878662 , 0.0721491277217865 , 0.16058513522148132 , 0.15853437781333923 , 0.13694122433662415 , -0.0761626809835434 , -0.21555714309215546 , -0.23130959272384644 } ,
	{ -0.06926491111516953 , 0.07509186863899231 , -0.15177609026432037 , 0.11880919337272644 , -0.11429023742675781 , 0.030451809987425804 , 0.2233375906944275 , 0.03405759856104851 , -0.02948584407567978 , 0.06673844158649445 , -0.04978561028838158 , -0.02783115953207016 , -0.10851145535707474 , -0.0802224650979042 , 0.18022462725639343 , -0.02597513049840927 } ,
	{ 0.040538687258958817 , 0.13012421131134033 , -0.03945380449295044 , -0.09676268696784973 , 0.09789298474788666 , 0.13963928818702698 , -0.2151671200990677 , -0.16844210028648376 , -0.04621511697769165 , -0.08201056718826294 , -0.10976509749889374 , -0.1239209994673729 , -0.07587355375289917 , -0.19297702610492706 , -0.12750069797039032 , 0.18053323030471802 } ,
	{ 0.04572143405675888 , -0.1546342521905899 , -0.07500603049993515 , 0.1099996492266655 , -0.04462257772684097 , 0.04326780140399933 , 0.17628967761993408 , -0.10630227625370026 , -0.2169823944568634 , 0.18455392122268677 , 0.11549688130617142 , 0.07708635181188583 , -0.07008036971092224 , -0.03097979724407196 , 0.08104410767555237 , 0.09029311686754227 } ,
	{ -0.13978292047977448 , -0.13746745884418488 , -0.07698073983192444 , 0.09293536841869354 , -0.05728263407945633 , 0.13882675766944885 , 0.10892187058925629 , -0.09328123182058334 , -0.22619527578353882 , -0.033337466418743134 , -0.021963512524962425 , 0.007329349871724844 , 0.03673577681183815 , 0.22102048993110657 , 0.05245532467961311 , -0.22058625519275665 } ,
	{ 0.0659954845905304 , -0.08350823074579239 , -0.20920029282569885 , -0.2256556749343872 , -0.06614822894334793 , 0.011242416687309742 , -0.05082305148243904 , -0.16149552166461945 , -0.21510609984397888 , 0.015813317149877548 , -0.0220731683075428 , 0.184430330991745 , 0.18944071233272552 , 0.11191906034946442 , 0.02156789042055607 , 0.10090209543704987 } ,
	{ 0.10104250907897949 , -0.040355730801820755 , 0.20907123386859894 , 0.13731643557548523 , -0.08201733231544495 , 0.09033863246440887 , 0.045560792088508606 , 0.20257604122161865 , -0.047847140580415726 , -0.1948929727077484 , 0.15222053229808807 , -0.15553514659404755 , 0.14339801669120789 , -0.1617542952299118 , 0.17492498457431793 , 0.19486397504806519 } ,
	{ 0.11279714107513428 , -0.09584781527519226 , -0.03483283892273903 , 0.020086657255887985 , 0.04250737652182579 , -0.054309528321027756 , 0.09896967560052872 , 0.16127826273441315 , 0.15127335488796234 , -0.1016593798995018 , -0.22182722389698029 , 0.13073204457759857 , -0.16820773482322693 , -0.08110043406486511 , -0.05850916728377342 , 0.06423724442720413 } ,
	{ 0.16217239201068878 , -0.0307080689817667 , -0.219065323472023 , -0.026893053203821182 , -0.12958060204982758 , -0.07795877754688263 , -0.13166187703609467 , 0.053684335201978683 , -0.22997373342514038 , -0.07111062854528427 , -0.166460782289505 , -0.18750253319740295 , -0.00338603463023901 , -0.0663791224360466 , -0.1012849435210228 , -0.1448858082294464 } ,
	{ 0.029710883274674416 , 0.06918742507696152 , 0.0439758263528347 , 0.10049506276845932 , 0.14907512068748474 , -0.13376334309577942 , -0.17636871337890625 , 0.06962209194898605 , 0.18934594094753265 , 0.029056688770651817 , 0.1068747416138649 , 0.07915875315666199 , 0.21946114301681519 , 0.17048752307891846 , 0.2183627188205719 , 0.21929340064525604 } ,
	{ -0.07711517065763474 , 0.12045299261808395 , 0.051571886986494064 , -0.05237675458192825 , -0.1815640926361084 , 0.075743168592453 , 0.03459891676902771 , 0.22394922375679016 , 0.08100844919681549 , 0.20996324717998505 , 0.03602657467126846 , 0.04947857931256294 , 0.19402502477169037 , -0.04433576017618179 , -0.042517390102148056 , 0.017370764166116714 } ,
	{ -0.1890891045331955 , -0.14936226606369019 , 0.025952203199267387 , -0.17218147218227386 , 0.14400219917297363 , 0.12693272531032562 , -0.17459024488925934 , -0.21657897531986237 , -0.13847579061985016 , -0.018059153109788895 , 0.17928482592105865 , 0.1672394722700119 , -0.08762750774621964 , -0.10256241261959076 , -0.0891205295920372 , -0.2153446227312088 } ,
	{ -0.19662509858608246 , 0.16708694398403168 , -0.09656209498643875 , -0.16631266474723816 , 0.04009481146931648 , 0.06756787747144699 , 0.17404872179031372 , -0.031182583421468735 , -0.030810458585619926 , 0.007669071201235056 , -0.13098323345184326 , 0.13038940727710724 , -0.11873167008161545 , -0.18308709561824799 , -0.21183791756629944 , 0.20492705702781677 } ,
	{ 0.1835952252149582 , -0.15922388434410095 , -0.03704053536057472 , -0.03828955814242363 , -0.0016969193238765001 , 0.04038206487894058 , -0.035333454608917236 , 0.11894131451845169 , -0.16001854836940765 , 0.1351088285446167 , -0.049292728304862976 , 0.024008050560951233 , 0.22830970585346222 , -0.11380191147327423 , 0.17059069871902466 , 0.05568021908402443 } ,
	{ -0.09447665512561798 , -0.08231591433286667 , 0.19209611415863037 , -0.050032030791044235 , 0.0076122889295220375 , 0.03776651248335838 , -0.12829244136810303 , -0.12772680819034576 , -0.13061265647411346 , -0.15503306686878204 , -0.2257491797208786 , 0.175266295671463 , 0.21757245063781738 , -0.07960096001625061 , -0.14933772385120392 , -0.13921813666820526 } ,
	{ -0.05682826042175293 , 0.2291717380285263 , -0.14396603405475616 , 0.016976743936538696 , 0.17760369181632996 , -0.2053970992565155 , 0.18523432314395905 , -0.01295550912618637 , 0.03344807028770447 , -0.1703742891550064 , 0.12216991931200027 , 0.133168026804924 , 0.18777593970298767 , 0.02929195947945118 , -0.06899096071720123 , -0.037584640085697174 } ,
	{ 0.004879102576524019 , 0.11589742451906204 , -0.2159411907196045 , 0.054597046226263046 , -0.11257175356149673 , -0.027516784146428108 , 0.14416441321372986 , -0.14350822567939758 , -0.04156230017542839 , -0.09557737410068512 , 0.15459078550338745 , -0.2019168585538864 , -0.09178163856267929 , 0.10832555592060089 , -0.22321002185344696 , 0.0404084213078022 } ,
	{ 0.07094398140907288 , -0.16474953293800354 , -0.12203002721071243 , -0.0239116121083498 , 0.18606065213680267 , -0.13137321174144745 , 0.053139667958021164 , 0.14051999151706696 , 0.09003382176160812 , -0.13088847696781158 , -0.19529306888580322 , 0.11380097270011902 , 0.21761400997638702 , -0.19842875003814697 , -0.04485790804028511 , 0.02562885172665119 } ,
	{ 0.10815665125846863 , -0.21654053032398224 , 0.07457529753446579 , -0.1523711383342743 , 0.03223441541194916 , -0.05569786950945854 , 0.2199173867702484 , -0.0491020530462265 , 0.05225307494401932 , 0.013963554985821247 , -0.18101057410240173 , 0.15029731392860413 , -0.10459733754396439 , -0.22153015434741974 , 0.09227210283279419 , 0.11878788471221924 } ,
	{ 0.08886263519525528 , -0.22474490106105804 , -0.13312791287899017 , 0.12611404061317444 , 0.17793187499046326 , 0.21743550896644592 , 0.13676737248897552 , -0.21000628173351288 , 0.20976710319519043 , 0.19966138899326324 , -0.1599738597869873 , -0.058325301855802536 , 0.003034572582691908 , 0.06445097178220749 , -0.20203177630901337 , -0.16453257203102112 } ,
	{ 0.01926848106086254 , -0.21425309777259827 , 0.16648361086845398 , 0.11393982172012329 , 0.11977692693471909 , -0.06659210473299026 , -0.1036783903837204 , -0.06483933329582214 , 0.09452837705612183 , -0.0781683400273323 , -0.14388400316238403 , -0.18152041733264923 , -0.13579288125038147 , -0.209771990776062 , 0.11579166352748871 , -0.11403747648000717 } ,
	{ -0.04736216738820076 , -0.07435928285121918 , 0.039931271225214005 , 0.08337197452783585 , -0.1779364049434662 , -0.10328052192926407 , 0.14735612273216248 , -0.1279095858335495 , 0.208780437707901 , -0.015510721132159233 , -0.19254715740680695 , -0.11133506149053574 , 0.05344412475824356 , -0.006875029765069485 , 0.09414594620466232 , 0.1956726312637329 } ,
	{ 0.20182932913303375 , -0.1001669317483902 , -0.07796511799097061 , 0.04916142299771309 , -0.024441199377179146 , -0.024367308244109154 , -0.009107956662774086 , -0.10419676452875137 , 0.08940902352333069 , 0.06558652967214584 , -0.1816936731338501 , -0.02884262427687645 , -0.15129436552524567 , 0.13344790041446686 , -0.1639108508825302 , -0.1126311644911766 } ,
	{ -0.2070959210395813 , 0.007834451273083687 , -0.18468469381332397 , -0.22610290348529816 , 0.16413936018943787 , 0.21248790621757507 , -0.0840887799859047 , 0.19858331978321075 , -0.06521280109882355 , -0.12796637415885925 , 0.08474691212177277 , -0.11462461203336716 , 0.16631664335727692 , -0.07570615410804749 , -0.07300303876399994 , 0.08167248219251633 } ,
	{ -0.2253667414188385 , -0.19333593547344208 , -0.13551907241344452 , -0.13890519738197327 , 0.17242194712162018 , -0.09572767466306686 , 0.01965543068945408 , 0.00013734749518334866 , 0.12490294873714447 , 0.16816256940364838 , -0.1739182025194168 , -0.119622141122818 , -0.11433874070644379 , 0.17551320791244507 , -0.19338512420654297 , -0.13729341328144073 } ,
	{ 0.08224249631166458 , -0.17324867844581604 , 0.0834524855017662 , -0.0860668495297432 , -0.1439168006181717 , 0.1860237717628479 , 0.21488752961158752 , 0.10790862143039703 , -0.19300714135169983 , -0.16847935318946838 , 0.006252002436667681 , -0.09447553753852844 , 0.13737426698207855 , 0.038552962243556976 , 0.00987168774008751 , -0.1591813713312149 } ,
	{ 0.04684174805879593 , -0.11152315139770508 , -0.1633516252040863 , -0.11901416629552841 , -0.18788081407546997 , -0.0016685936134308577 , -0.05348647013306618 , -0.009668146260082722 , -0.037035129964351654 , -0.1336430162191391 , -0.10358189046382904 , -0.06021110713481903 , -0.031286634504795074 , -0.04284541681408882 , 0.052826255559921265 , 0.011716163717210293 } ,
	{ 0.04026180878281593 , -0.038075223565101624 , -0.2264319509267807 , 0.04338665306568146 , -0.17391645908355713 , -0.08042480051517487 , 0.051489558070898056 , -0.22299766540527344 , 0.04470021277666092 , 0.1349923312664032 , 0.1127457246184349 , 0.17217113077640533 , 0.12378113716840744 , 0.06175997108221054 , 0.186081662774086 , -0.053904999047517776 } ,
	{ 0.0549883209168911 , -0.20244237780570984 , 0.029207095503807068 , 0.05169245973229408 , -0.18165653944015503 , 0.08125150203704834 , -0.13470077514648438 , 0.21091359853744507 , -0.20511753857135773 , 0.11160127073526382 , 0.19396619498729706 , 0.1940678060054779 , -0.0680747851729393 , 0.05891915038228035 , -0.012683771550655365 , -0.06965117901563644 } ,
	{ -0.0987028032541275 , -0.17513319849967957 , 0.1093614399433136 , 0.15919210016727448 , -0.16363976895809174 , 0.06872200965881348 , 0.05159890651702881 , 0.10108841955661774 , 0.03315683826804161 , 0.18456821143627167 , 0.07916755974292755 , -0.036506518721580505 , -0.03375682234764099 , 0.06796856224536896 , 0.15690281987190247 , 0.026411546394228935 } ,
	{ 0.15811331570148468 , -0.11444510519504547 , -0.07272862643003464 , -0.18336020410060883 , -0.22720298171043396 , 0.11694575101137161 , -0.1610119789838791 , 0.1680097132921219 , -0.15549138188362122 , 0.14260047674179077 , 0.01766425557434559 , -0.15444353222846985 , 0.11011593788862228 , -0.06921147555112839 , 0.0977373868227005 , -0.1941109001636505 } ,
	{ -0.20685161650180817 , -0.21644559502601624 , -0.09173773229122162 , 0.0775739923119545 , 0.1947098821401596 , 0.06361210346221924 , -0.10363802313804626 , 0.04831128939986229 , -0.16584275662899017 , -0.036399196833372116 , -0.015298518352210522 , 0.13906754553318024 , 0.16027402877807617 , 0.05948043614625931 , 0.20654261112213135 , -0.2086988240480423 } ,
	{ -0.022298701107501984 , 0.035234689712524414 , -0.22219038009643555 , 0.19139191508293152 , -0.18562327325344086 , -0.05321885645389557 , -0.1635635644197464 , 0.22904691100120544 , -0.09103003889322281 , -0.1715654730796814 , -0.08350377529859543 , 0.109032541513443 , -0.22240112721920013 , 0.041994545608758926 , -0.05870277062058449 , 0.18357673287391663 } ,
	{ -0.01643073745071888 , -0.1366351991891861 , -0.0026586500462144613 , -0.11707961559295654 , 0.10133317857980728 , -0.19465677440166473 , -0.08848457038402557 , 0.0568409189581871 , -0.15188036859035492 , 0.09583638608455658 , -0.1937728226184845 , -0.21938394010066986 , -0.13994207978248596 , 0.22438643872737885 , -0.166754812002182 , -0.19503800570964813 } ,
	{ 0.21892760694026947 , 0.20336338877677917 , 0.1707790195941925 , -0.23001977801322937 , 0.16049064695835114 , 0.02753112092614174 , 0.20128893852233887 , -0.11567911505699158 , -0.1414196789264679 , -0.1635623276233673 , 0.1455506831407547 , -0.061179839074611664 , -0.2133006453514099 , 0.09162768721580505 , -0.0900893434882164 , -0.21802476048469543 } ,
	{ -0.17818409204483032 , 0.10589879006147385 , -0.19829171895980835 , -0.07712262123823166 , 0.12872691452503204 , 0.032538510859012604 , -0.06404685974121094 , 0.1167660802602768 , -0.23177209496498108 , 0.14887264370918274 , 0.12503090500831604 , 0.014037094078958035 , 0.017417602241039276 , 0.10017400979995728 , 0.06549103558063507 , -0.12631139159202576 } ,
	{ -0.01955134980380535 , -0.05196353793144226 , -0.10111973434686661 , 0.029501771554350853 , -0.02252432145178318 , -0.1467680037021637 , 0.1445338875055313 , -0.22852158546447754 , -0.10297369211912155 , -0.012562447227537632 , -0.12636487185955048 , -0.1392780989408493 , 0.10181935131549835 , -0.16712027788162231 , 0.18735840916633606 , -0.08774452656507492 } ,
	{ 0.15566127002239227 , 0.03360280394554138 , 0.04620053991675377 , -0.2008536458015442 , -0.1372542828321457 , -0.199972003698349 , -0.14547817409038544 , 0.07474087178707123 , -0.20401965081691742 , 0.19333945214748383 , 0.16778349876403809 , 0.20989306271076202 , 0.003029182553291321 , 0.014914953149855137 , 0.10893523693084717 , -0.1544777750968933 } ,
	{ 0.13640104234218597 , -0.19937340915203094 , -0.1845131367444992 , 0.13275004923343658 , -0.058620307594537735 , -0.11447831988334656 , -0.1038459986448288 , 0.12473984062671661 , -0.043347518891096115 , 0.07181041687726974 , 0.1762913316488266 , 0.1976064145565033 , 0.047244757413864136 , -0.1422506719827652 , 0.1471600979566574 , 0.2186577022075653 } ,
	{ -0.03745375573635101 , -0.09696942567825317 , -0.08474607765674591 , 0.1926414966583252 , 0.05792390555143356 , -0.1530419886112213 , 0.03227625787258148 , -0.07412193715572357 , 0.03177320957183838 , -0.11530830711126328 , 0.12478330731391907 , -0.17847409844398499 , -0.21576274931430817 , -0.22676585614681244 , -0.10039716958999634 , 0.19541627168655396 } ,
	{ -0.12353528290987015 , 0.18144042789936066 , -0.1729893982410431 , -0.04778082296252251 , -0.15859746932983398 , -0.19640234112739563 , 0.20819522440433502 , -0.023657219484448433 , -0.22792352735996246 , -0.16356831789016724 , 0.044894881546497345 , 0.1858121007680893 , 0.16253133118152618 , -0.2288789302110672 , -0.01323518343269825 , -0.1608259379863739 } ,
	{ -0.23066385090351105 , 0.128355011343956 , -0.024638790637254715 , -0.07930926233530045 , -0.1720408797264099 , 0.14463895559310913 , 0.1998310685157776 , -0.2063087373971939 , -0.09734619408845901 , 0.02342604100704193 , 0.16495345532894135 , -0.08895906805992126 , 0.09649693965911865 , -0.15721526741981506 , -0.02561747096478939 , -0.08872353285551071 } ,
	{ 0.0914287120103836 , 0.15563614666461945 , -0.01924438402056694 , -0.17599771916866302 , -0.05210505798459053 , -0.23044516146183014 , -0.1957886815071106 , 0.011329945176839828 , 0.015921341255307198 , 0.1685357391834259 , -0.18239885568618774 , -0.17801815271377563 , -0.13436029851436615 , 0.2177751064300537 , -0.004395080264657736 , -0.09472715854644775 } ,
	{ 0.06132175773382187 , 0.12586727738380432 , 0.11429905146360397 , -0.07361586391925812 , -0.17261509597301483 , -0.07218008488416672 , -0.1390780806541443 , -0.030339060351252556 , 0.16835367679595947 , 0.2149020880460739 , -0.07107388973236084 , 0.17093849182128906 , 0.21561329066753387 , 0.023676743730902672 , 0.06822940707206726 , -0.17221282422542572 } ,
	{ 0.040851935744285583 , -0.1119232252240181 , -0.09316609054803848 , -0.155754953622818 , 0.1811395287513733 , 0.052147526293992996 , 0.2074483335018158 , -0.06595322489738464 , 0.023149792104959488 , 0.16818304359912872 , -0.07615514099597931 , 0.16757336258888245 , 0.08182024210691452 , -0.05616560950875282 , -0.02159395068883896 , 0.008335238322615623 } ,
	{ 0.10491201281547546 , -0.04072916507720947 , -0.14950276911258698 , -0.06653782725334167 , -0.03287861868739128 , -0.20262236893177032 , -0.0038089496083557606 , -0.09625484049320221 , 0.21704980731010437 , 0.17038008570671082 , -0.10311998426914215 , 0.20089027285575867 , 0.1524370163679123 , 0.10165698826313019 , -0.0728268027305603 , -0.1771765649318695 } ,
	{ 0.06660674512386322 , 0.13336195051670074 , 0.18221339583396912 , -0.22502753138542175 , -0.11601851880550385 , 0.07277046889066696 , 0.18356803059577942 , 0.03573932871222496 , 0.09034400433301926 , 0.0881030485033989 , -0.22584965825080872 , -0.016686560586094856 , 0.15489092469215393 , 0.10611014068126678 , -0.13744200766086578 , -0.11781271547079086 } ,
	{ 0.13066963851451874 , 0.06097601354122162 , 0.09721559286117554 , -0.09987977147102356 , -0.20437783002853394 , 0.05613325908780098 , 0.1211707815527916 , -0.11159370094537735 , -0.08452758938074112 , -0.16541212797164917 , 0.008403356187045574 , 0.22141596674919128 , -0.14712515473365784 , -0.1780354529619217 , 0.061704397201538086 , -0.0614456944167614 } ,
	{ -0.18622229993343353 , -0.16069747507572174 , 0.04191421717405319 , 0.09380202740430832 , -0.0044265263713896275 , -0.12535744905471802 , 0.039680346846580505 , 0.1358550488948822 , -0.031306564807891846 , -0.057163506746292114 , 0.15759311616420746 , 0.0834585428237915 , 0.025492576882243156 , -0.13339968025684357 , 0.019665777683258057 , -0.03691428154706955 } ,
	{ -0.14066170156002045 , -0.11448529362678528 , 0.06712765991687775 , 0.10944244265556335 , 0.2232583463191986 , -0.17874032258987427 , 0.17621301114559174 , 0.18352286517620087 , 0.1625145673751831 , 0.22026970982551575 , -0.19088783860206604 , 0.12167156487703323 , -0.19236089289188385 , -0.022942975163459778 , -0.07793217897415161 , -0.21988297998905182 } ,
	{ 0.21345339715480804 , 0.019742021337151527 , 0.16333140432834625 , 0.07001852989196777 , -0.12220983952283859 , 0.12019490450620651 , -0.02238522656261921 , 0.05011187493801117 , -0.023920247331261635 , -0.1439087837934494 , -0.004762128461152315 , -0.052392568439245224 , 0.06005079299211502 , 0.036351703107357025 , -0.15894277393817902 , 0.12209124118089676 } ,
	{ 0.2040134221315384 , -0.21534861624240875 , -0.14516374468803406 , -0.11501745134592056 , 0.16790159046649933 , -0.11226749420166016 , 0.09277641028165817 , -0.15314508974552155 , -0.0887012705206871 , 0.1411082148551941 , -0.033869218081235886 , -0.18700271844863892 , -0.1409541219472885 , -0.049367018043994904 , -0.1638595014810562 , -0.2285793125629425 } ,
	{ -0.09267367422580719 , -0.1527290791273117 , -0.07089094817638397 , 0.18343289196491241 , -0.09949987381696701 , -0.0806068405508995 , 0.1466401219367981 , -0.11926678568124771 , 0.21114814281463623 , -0.022189626470208168 , -0.009159287437796593 , 0.22310088574886322 , 0.07390935719013214 , 0.019501378759741783 , 0.18188509345054626 , -0.08691934496164322 } ,
	{ 0.13971509039402008 , -0.09402208775281906 , -0.2071269154548645 , -0.1622915267944336 , 0.15094734728336334 , 0.2201826423406601 , -0.058524373918771744 , -0.08562500774860382 , -0.06342509388923645 , -0.21634146571159363 , -0.014403442852199078 , -0.1254381537437439 , -0.18267090618610382 , -0.0837077870965004 , -0.22581909596920013 , -0.03821931034326553 } ,
	{ -0.0058471523225307465 , -0.13935509324073792 , 0.00889661442488432 , 0.08007413893938065 , -0.08284632861614227 , -0.15282945334911346 , 0.02616947889328003 , 0.0006720132660120726 , -0.21324022114276886 , -0.05795053020119667 , -0.07136180251836777 , 0.18343308568000793 , 0.1103769838809967 , -0.025060154497623444 , 0.08387120813131332 , -0.1652848869562149 } ,
	{ -0.0843532383441925 , -0.09029479324817657 , 0.18421536684036255 , 0.08979841321706772 , -0.08110994100570679 , -0.1790139377117157 , -0.191626638174057 , 0.12512728571891785 , -0.2072085440158844 , 0.09582628309726715 , -0.04821229726076126 , 0.029542695730924606 , 0.0365334190428257 , 0.16326944530010223 , 0.1685527265071869 , 0.04208905249834061 } ,
	{ -0.16794763505458832 , 0.012428202666342258 , 0.12233531475067139 , 0.15893523395061493 , 0.12566567957401276 , -0.06318051367998123 , -0.21692155301570892 , -0.1187102422118187 , -0.06797493249177933 , 0.21381086111068726 , 0.03829700127243996 , -0.0824173092842102 , 0.042784184217453 , 0.06656089425086975 , 0.05849381536245346 , 0.15409910678863525 } ,
	{ -0.017445506528019905 , 0.2267370969057083 , -0.19957733154296875 , -0.0006215239991433918 , -0.0783175528049469 , 0.2028176188468933 , -0.07956472039222717 , 0.22565317153930664 , 0.11252070963382721 , 0.22199808061122894 , -0.12284722179174423 , 0.1746506243944168 , -0.19778893887996674 , -0.10306191444396973 , -0.1124805137515068 , 0.16771440207958221 } ,
	{ -0.013110830448567867 , 0.05433642864227295 , 0.0795782133936882 , -0.03161830082535744 , 0.15197573602199554 , -0.08932662755250931 , 0.18539927899837494 , -0.20683202147483826 , -0.06485732644796371 , 0.02130822464823723 , 0.045720502734184265 , -0.027294950559735298 , -0.19468694925308228 , -0.06345081329345703 , -0.007256475277245045 , -0.14729627966880798 } ,
	{ 0.17543619871139526 , -0.1272021234035492 , -0.1210678219795227 , 0.07108675688505173 , 0.22674742341041565 , 0.21703846752643585 , 0.05748327821493149 , -0.034020472317934036 , 0.21587103605270386 , 0.1707531362771988 , -0.017695562914013863 , -0.1553269624710083 , -0.22444143891334534 , 0.1740885078907013 , -0.046823132783174515 , -0.1477401703596115 }
};
float32 gru_kernel_reset[64][16]=
{
	{ -0.0565146766602993 , 0.0705830529332161 , -0.13103537261486053 , -0.22878888249397278 , -0.028352804481983185 , 0.17582519352436066 , -0.0032772256527096033 , -0.09798745065927505 , 0.22818182408809662 , 0.06404013186693192 , 0.17791689932346344 , 0.20644302666187286 , 0.0797155424952507 , 0.15208852291107178 , -0.07560991495847702 , 0.15047219395637512 } ,
	{ 0.13555797934532166 , 0.008102450519800186 , -0.04928847402334213 , 0.11010493338108063 , 0.008334585465490818 , -0.08878045529127121 , -0.1705598682165146 , -0.2119777351617813 , 0.039457760751247406 , 0.20082202553749084 , -0.037121422588825226 , -0.22414228320121765 , -0.0015242528170347214 , 0.21390888094902039 , -0.14306269586086273 , -0.21039405465126038 } ,
	{ -0.06011534109711647 , -0.11927705258131027 , -0.05177522823214531 , 0.02689092978835106 , -0.09563097357749939 , 0.13823765516281128 , 0.2208028882741928 , -0.11222117394208908 , 0.07908016443252563 , 0.10989195853471756 , 0.10860767960548401 , 0.10700295865535736 , 0.18531087040901184 , 0.15591472387313843 , -0.16279913485050201 , 0.09842761605978012 } ,
	{ -0.21597328782081604 , 0.13189862668514252 , 0.18441349267959595 , -0.12867602705955505 , 0.12150326371192932 , 0.139241561293602 , -0.16598235070705414 , 0.043426673859357834 , 0.033637672662734985 , -0.0721110925078392 , 0.20394648611545563 , -0.04663956165313721 , 0.06544452160596848 , -0.12569878995418549 , 0.10783696174621582 , 0.027270128950476646 } ,
	{ 0.08407144248485565 , -0.2009436935186386 , 0.14205771684646606 , -0.13280245661735535 , -0.08408012986183167 , -0.06915432214736938 , -0.01600978896021843 , 0.027844559401273727 , -0.08351846784353256 , 0.1559956818819046 , -0.22488419711589813 , -0.17257143557071686 , 0.12203655391931534 , -0.15535958111286163 , 0.0010245637968182564 , -0.1284542977809906 } ,
	{ 0.13479380309581757 , -0.09480047225952148 , -0.08497277647256851 , 0.15618236362934113 , 0.04606624320149422 , -0.06454022973775864 , 0.06319854408502579 , -0.030287813395261765 , 0.06106365844607353 , -0.05715259909629822 , -0.1094512864947319 , -0.19895587861537933 , 0.13231608271598816 , -0.22942474484443665 , -0.11716464906930923 , -0.10326176881790161 } ,
	{ 0.01901336945593357 , 0.19668114185333252 , -0.09135591238737106 , 0.22274625301361084 , 0.13308857381343842 , 0.2319135218858719 , 0.033138811588287354 , 0.20748230814933777 , -0.041500240564346313 , 0.15619292855262756 , -0.05853290855884552 , 0.09115896373987198 , 0.18738634884357452 , 0.041944053024053574 , -0.17793910205364227 , -0.07612510025501251 } ,
	{ 0.003596024587750435 , 0.2282901108264923 , 0.16824057698249817 , -0.1604834645986557 , -0.17555201053619385 , 0.1294182538986206 , 0.21841761469841003 , 0.05396471545100212 , 0.06189882755279541 , 0.08588379621505737 , 0.14434903860092163 , -0.009875424206256866 , -0.05902070179581642 , 0.10422854870557785 , -0.15169884264469147 , -0.002357916906476021 } ,
	{ -0.139346644282341 , -0.16705487668514252 , -0.18269439041614532 , 0.1832197904586792 , -0.1392189860343933 , -0.050039760768413544 , -0.19110725820064545 , 0.16366443037986755 , 0.10845170170068741 , 0.08690082281827927 , -0.06311073899269104 , 0.04404468089342117 , -0.12192681431770325 , 0.05518154054880142 , 0.15178342163562775 , -0.03690887615084648 } ,
	{ 0.13698385655879974 , -0.18390370905399323 , 0.19863753020763397 , 0.16050094366073608 , 0.13333763182163239 , -0.22738483548164368 , 0.0987761840224266 , -0.18904311954975128 , 0.227757528424263 , -0.21400123834609985 , -0.17188391089439392 , -0.05094439536333084 , -0.10479369759559631 , -0.08214817941188812 , 0.0428256094455719 , -0.04246009886264801 } ,
	{ -0.05758102610707283 , -0.13119405508041382 , -0.22886845469474792 , 0.14445418119430542 , -0.13223378360271454 , -0.05403396487236023 , 0.09270256757736206 , 0.1824946403503418 , -0.18060167133808136 , -0.05143764615058899 , 0.035065945237874985 , -0.15012449026107788 , -0.21769514679908752 , 0.009193741716444492 , -0.20762914419174194 , -0.20852038264274597 } ,
	{ 0.1498754471540451 , 0.022109543904662132 , -0.20717401802539825 , 0.224321186542511 , -0.0495077446103096 , -0.11230538785457611 , -0.15538761019706726 , 0.19021497666835785 , 0.17922988533973694 , 0.10426275432109833 , -0.1634935438632965 , -0.08142673969268799 , 0.08897443115711212 , -0.19519449770450592 , -0.0016579621005803347 , -0.016078811138868332 } ,
	{ 0.20435084402561188 , 0.0970350131392479 , -0.1203407272696495 , 0.12831555306911469 , 0.06318162381649017 , -0.10096143186092377 , 0.02398013323545456 , -0.08564821630716324 , 0.053132254630327225 , -0.13794691860675812 , 0.20814915001392365 , 0.07996799051761627 , 0.006149751599878073 , -0.14066018164157867 , -0.12059280276298523 , -0.07857774943113327 } ,
	{ -0.07582628726959229 , -0.06341970711946487 , 0.024508407339453697 , -0.047282177954912186 , -0.06889171153306961 , 0.20046480000019073 , -0.11770323663949966 , 0.011915627866983414 , -0.016288720071315765 , -0.07926181703805923 , -0.0640898272395134 , 0.17092834413051605 , -0.20020343363285065 , 0.15562885999679565 , -0.1444631963968277 , -0.18307019770145416 } ,
	{ -0.09984967112541199 , -0.19201210141181946 , -0.08629123121500015 , 0.015004974789917469 , -0.06700029224157333 , 0.2023402452468872 , -0.1863049864768982 , -4.1418883483856916e-05 , -0.1153697818517685 , 0.1974518895149231 , 0.10379593819379807 , 0.18477827310562134 , -0.0964122787117958 , -0.013983884826302528 , -0.2112596482038498 , -0.07959092408418655 } ,
	{ -0.0988590195775032 , 0.11139440536499023 , 0.1845974177122116 , -0.09490284323692322 , -0.06741625815629959 , 0.10057602822780609 , 0.07755088061094284 , 0.17010143399238586 , -0.1728639155626297 , 0.18858829140663147 , -0.21119526028633118 , -0.1491851657629013 , 0.04303579404950142 , -0.0063051157630980015 , 0.06375430524349213 , -0.14212381839752197 } ,
	{ -0.2258068025112152 , -0.2257479727268219 , -0.08935949951410294 , -0.029361872002482414 , 0.09312213957309723 , -0.20516307651996613 , -0.09776944667100906 , 0.04263805225491524 , 0.07096892595291138 , -0.023444904014468193 , -0.12081745266914368 , -0.2191588133573532 , -0.022368093952536583 , 0.01957281306385994 , 0.054618965834379196 , 0.06709451228380203 } ,
	{ -0.10816370695829391 , -0.05114797502756119 , -0.2293625771999359 , 0.030297867953777313 , -0.03810097277164459 , 0.13931778073310852 , 0.19500388205051422 , 0.19070865213871002 , 0.22310511767864227 , -0.08898106962442398 , 0.21662649512290955 , -0.15803870558738708 , -0.08567682653665543 , -0.1652906984090805 , 0.08050813525915146 , -0.010499668307602406 } ,
	{ -0.08701329678297043 , -0.03469913825392723 , -0.1473032832145691 , 0.16625677049160004 , 0.13336950540542603 , 0.18424052000045776 , -0.04897892102599144 , 0.09735406935214996 , 0.12610064446926117 , 0.17220871150493622 , -0.16044673323631287 , 0.1898675113916397 , -0.06665080785751343 , -0.11479481309652328 , -0.16029348969459534 , 0.15940944850444794 } ,
	{ 0.15544478595256805 , 0.13701193034648895 , -0.10844194889068604 , 0.20996598899364471 , 0.18153037130832672 , -0.042369257658720016 , -0.1553313434123993 , 0.1802118420600891 , 0.02177882380783558 , -0.17364047467708588 , 0.1274985820055008 , 0.1846374124288559 , -0.14538268744945526 , 0.18238499760627747 , 0.18695874512195587 , 0.00830293633043766 } ,
	{ 0.02702399529516697 , 0.17975223064422607 , -0.1260460913181305 , -0.05662943050265312 , 0.039560120552778244 , 0.0317365899682045 , 0.11204182356595993 , -0.02863696776330471 , 0.13898412883281708 , 0.11453747749328613 , -0.1035512238740921 , -0.1181928887963295 , 0.12670065462589264 , 0.1726820319890976 , -0.010490784421563148 , 0.011776736006140709 } ,
	{ -0.06408393383026123 , 0.1794375330209732 , 0.056092519313097 , -0.13289742171764374 , -0.1426773965358734 , 0.060440026223659515 , 0.11201217770576477 , -0.07729963213205338 , 0.0360807366669178 , 0.2086513340473175 , -0.08928175270557404 , 0.10435329377651215 , 0.11045306921005249 , -0.05872472748160362 , -0.10854960232973099 , -0.05172579362988472 } ,
	{ -0.10593828558921814 , -0.10967280715703964 , -0.006987859960645437 , -0.007778818719089031 , -0.17220719158649445 , 0.01639370806515217 , 0.11604725569486618 , 0.182724267244339 , -0.18784183263778687 , -0.09292315691709518 , 0.009311613626778126 , -0.0680081769824028 , 0.02580907568335533 , 0.2142900675535202 , -0.16503487527370453 , 0.06868607550859451 } ,
	{ -0.16502347588539124 , -0.12694776058197021 , 0.025364471599459648 , 0.0650641918182373 , 0.21696920692920685 , -0.15338054299354553 , -0.03469333052635193 , 0.18403692543506622 , 0.1106150895357132 , 0.1353909969329834 , 0.02464614063501358 , -0.13789206743240356 , -0.1503741592168808 , -0.16592182219028473 , 0.12804453074932098 , 0.006648491136729717 } ,
	{ 0.15321525931358337 , 0.02259979397058487 , -0.22033455967903137 , 0.08851426094770432 , -0.1602555811405182 , -0.08585175126791 , -0.20458385348320007 , -0.09302394837141037 , 0.1793447881937027 , 0.03647676110267639 , 0.19250744581222534 , 0.132997527718544 , -0.15658751130104065 , -0.10685376077890396 , -0.006593409925699234 , 0.02248566411435604 } ,
	{ -0.011462264694273472 , -0.2205769419670105 , -0.20937037467956543 , -0.13836915791034698 , -0.03883838281035423 , -0.17992597818374634 , -0.0061714742332696915 , 0.061794959008693695 , 0.1978592723608017 , 0.044567447155714035 , 0.07325317710638046 , 0.15363843739032745 , 0.032516807317733765 , -0.0755755677819252 , 0.13644316792488098 , -0.15378279983997345 } ,
	{ -0.2170393168926239 , 0.1290070116519928 , 0.17678001523017883 , 0.1466967761516571 , 0.22885364294052124 , -0.1289757341146469 , -0.11353528499603271 , -0.1409900039434433 , -0.0533205047249794 , -0.1529735028743744 , -0.06374306231737137 , -0.019492115825414658 , 0.01871389150619507 , 0.1474829763174057 , -0.055187124758958817 , -0.07867469638586044 } ,
	{ -0.034451667219400406 , 0.20155632495880127 , 0.117539182305336 , 0.022079968824982643 , -0.12224461138248444 , 0.006139857228845358 , 0.22769565880298615 , 0.1787426620721817 , 0.08524861931800842 , 0.10196656733751297 , -0.225594162940979 , -0.20163466036319733 , 0.167617529630661 , -0.11909589171409607 , 0.024548469111323357 , 0.011269844137132168 } ,
	{ -0.05471865460276604 , 0.1827448159456253 , -0.20954102277755737 , -0.07812557369470596 , -0.08917407691478729 , -0.11233972012996674 , 0.06365345418453217 , 0.17992626130580902 , 0.11225160956382751 , 0.12340701371431351 , -0.09011448919773102 , 0.13108785450458527 , -0.16602545976638794 , -0.012626947835087776 , -0.1412082463502884 , 0.1060505360364914 } ,
	{ -0.16903620958328247 , -0.0989437997341156 , 0.02130778320133686 , -0.013669795356690884 , -0.0860503539443016 , -0.13343310356140137 , 0.22531326115131378 , 0.03947317972779274 , 0.025081150233745575 , -0.010173758491873741 , -0.13084016740322113 , -0.0568980872631073 , 0.20626883208751678 , -0.039369598031044006 , -0.1865912824869156 , 0.0740484669804573 } ,
	{ 0.18815113604068756 , 0.03320459648966789 , 0.06631898880004883 , -0.025384925305843353 , 0.07305169850587845 , 0.20938880741596222 , -0.07402811199426651 , 0.13773036003112793 , -0.19989082217216492 , -0.08851198852062225 , -0.09644720703363419 , 0.017970914021134377 , -0.021177800372242928 , -0.14633913338184357 , 0.08497805148363113 , -0.14441242814064026 } ,
	{ -0.1464020311832428 , 0.21972712874412537 , 0.11968819797039032 , -0.011163368821144104 , -0.06197850778698921 , 0.05987127125263214 , 0.08100597560405731 , -0.05979263037443161 , -0.12935665249824524 , 0.016291746869683266 , 0.004174394533038139 , -0.07994944602251053 , -0.09526123106479645 , -0.18588967621326447 , 0.04141451045870781 , 0.06362605094909668 } ,
	{ -0.07472994178533554 , -0.03750474005937576 , 0.20249851047992706 , -0.20770038664340973 , -0.10265015065670013 , -0.2015909105539322 , 0.07464266568422318 , -0.21432118117809296 , 0.22616474330425262 , -0.12112501263618469 , -0.03443961217999458 , -0.1423814594745636 , 0.19706448912620544 , 0.19603247940540314 , -0.1350059062242508 , 0.06159256026148796 } ,
	{ 0.11453105509281158 , 0.19554373621940613 , -0.059520382434129715 , 0.13151715695858002 , 0.007331607397645712 , 0.1811436414718628 , -0.002685274463146925 , 0.16087010502815247 , -0.15430888533592224 , -0.12354682385921478 , 0.22081995010375977 , -0.03237152844667435 , 0.1493643969297409 , -0.04782230034470558 , 0.016111666336655617 , 0.203338161110878 } ,
	{ 0.037659190595149994 , -0.16464710235595703 , 0.041847508400678635 , -0.1261368840932846 , -0.048776961863040924 , 0.012526707723736763 , -0.1071077287197113 , -0.12280068546533585 , 0.17589633166790009 , 0.11404974013566971 , 0.19661131501197815 , -0.06497462838888168 , 0.20272117853164673 , -0.024095090106129646 , -0.07529101520776749 , -0.013682949356734753 } ,
	{ 0.01029526349157095 , 0.04348740726709366 , 0.09449287503957748 , 0.022969506680965424 , -0.12041718512773514 , -0.11790081858634949 , -0.1960984468460083 , 0.17259758710861206 , 0.12032999843358994 , -0.10883630812168121 , 0.20349159836769104 , 0.13338837027549744 , 0.15679951012134552 , -0.0015381688717752695 , -0.15800926089286804 , -0.13219943642616272 } ,
	{ -0.1988421529531479 , 0.03637583926320076 , -0.0815882608294487 , -0.07273795455694199 , -0.05874847620725632 , -0.08977553993463516 , -0.050610605627298355 , -0.1448209285736084 , -0.18622931838035583 , 0.17160508036613464 , 0.0074144587852060795 , 0.1822809875011444 , 0.04450240731239319 , 0.14856502413749695 , -0.0917520672082901 , -0.02927061729133129 } ,
	{ -0.17632754147052765 , -0.20524261891841888 , -0.23086711764335632 , -0.22285708785057068 , 0.10042955726385117 , 0.04873714968562126 , 0.14995163679122925 , -0.18186305463314056 , 0.17940567433834076 , 0.037567444145679474 , 0.14094990491867065 , -0.18761029839515686 , 0.20326882600784302 , -0.17449554800987244 , 0.05572135001420975 , 0.1755705177783966 } ,
	{ 0.03650812804698944 , -0.01202575396746397 , 0.12443482875823975 , 0.14991244673728943 , -0.16503283381462097 , 0.09612563252449036 , -0.017071079462766647 , -0.14438584446907043 , 0.0296364463865757 , -0.18732327222824097 , -0.12945158779621124 , 0.08344125747680664 , 0.1943521797657013 , -0.09467265009880066 , -0.13467121124267578 , -0.21670551598072052 } ,
	{ -0.05212462693452835 , -0.1262005865573883 , -0.1427491009235382 , 0.1969602257013321 , 0.23263028264045715 , 0.10969743877649307 , -0.18818604946136475 , 0.002423772821202874 , -0.0369015708565712 , -0.1956433653831482 , -0.07198545336723328 , 0.04525969922542572 , 0.23034991323947906 , -0.20218732953071594 , -0.11725416034460068 , -0.011339724063873291 } ,
	{ 0.16980640590190887 , -0.0063969469629228115 , 0.2039344757795334 , 0.04179610684514046 , 0.19073186814785004 , 0.21229301393032074 , 0.050132013857364655 , -0.014054517261683941 , 0.21015283465385437 , -0.1221928596496582 , 0.2100166529417038 , -0.11419333517551422 , 0.12589271366596222 , 0.18535961210727692 , 0.07630810886621475 , 0.1068483293056488 } ,
	{ -0.10493654012680054 , -0.21146057546138763 , -0.16476058959960938 , 0.07463663816452026 , -0.050082094967365265 , -0.219069242477417 , -0.13575831055641174 , 0.026395617052912712 , -0.028179217129945755 , 0.12357000261545181 , -0.06633614003658295 , -0.19759581983089447 , 0.10631740093231201 , 0.21599388122558594 , -0.1176813468337059 , 0.12920504808425903 } ,
	{ 0.19535769522190094 , -0.1134917214512825 , 0.16877393424510956 , -0.13878998160362244 , -0.095054030418396 , 0.07784009724855423 , -0.2109372764825821 , -0.06893457472324371 , 0.16375181078910828 , -0.19818808138370514 , 0.1250961869955063 , 0.08553791046142578 , -0.11072105914354324 , 0.052242081612348557 , 0.11668212711811066 , 0.19073426723480225 } ,
	{ 0.19986537098884583 , 0.19166675209999084 , -0.12476146221160889 , -0.21048833429813385 , -0.13925427198410034 , 0.09298770874738693 , -0.06959787756204605 , 0.1407104879617691 , 0.01293163187801838 , -0.2118709534406662 , -0.1010730043053627 , -0.1022363156080246 , 0.19791701436042786 , -0.14027516543865204 , -0.05541154369711876 , -0.1881871074438095 } ,
	{ -0.058830201625823975 , 0.07416117936372757 , 0.06805750727653503 , -0.2163209170103073 , -0.08311133086681366 , 0.05647033080458641 , 0.22631801664829254 , 0.1513960212469101 , 0.028114967048168182 , 0.22785286605358124 , -0.13676714897155762 , 0.05672147870063782 , 0.22560840845108032 , -0.18667039275169373 , -0.20677830278873444 , 0.14164744317531586 } ,
	{ -0.07156196981668472 , -0.11732848733663559 , -0.15465147793293 , -0.0739545151591301 , 0.029173295944929123 , 0.18201997876167297 , -0.051804959774017334 , 0.03860059380531311 , 0.19039957225322723 , -0.03962292894721031 , 0.008849811740219593 , 0.1560744047164917 , 0.011322516947984695 , 0.12198692560195923 , -0.01632310077548027 , -0.007582663558423519 } ,
	{ -0.22834452986717224 , 0.160862535238266 , -0.10149086266756058 , 0.06396390497684479 , -0.07033059746026993 , -0.15979383885860443 , 0.032638102769851685 , -0.1815086007118225 , 0.1139020174741745 , 0.17360273003578186 , -0.056362684816122055 , -0.0548458993434906 , -0.009477897547185421 , 0.1474042534828186 , -0.024131236597895622 , 0.21310004591941833 } ,
	{ 0.19518375396728516 , 0.12738823890686035 , -0.16002966463565826 , -0.20468412339687347 , -0.10211897641420364 , -0.007202086504548788 , -0.1715172529220581 , 0.17208077013492584 , -0.004982899874448776 , 0.16027198731899261 , 0.22879061102867126 , 0.18267104029655457 , -0.11483313143253326 , -0.07270245999097824 , 0.10588869452476501 , -0.09457215666770935 } ,
	{ -0.18770185112953186 , -0.1033543050289154 , 0.173399418592453 , -0.06276232749223709 , 0.013354513794183731 , 0.18922756612300873 , -0.030303526669740677 , 0.031382929533720016 , -0.004029427655041218 , -0.16740286350250244 , -0.19858941435813904 , -0.1255638599395752 , 0.17939208447933197 , 0.1445915549993515 , -0.08342579752206802 , 0.1130710318684578 } ,
	{ 0.1353401243686676 , -0.007311251945793629 , -0.06105392426252365 , -0.2185264676809311 , 0.1700461208820343 , 0.12661072611808777 , 0.03966712951660156 , -0.07091804593801498 , 0.19609034061431885 , 0.1717214733362198 , 0.1222672387957573 , -0.06839712709188461 , -0.1211242750287056 , -0.007880466990172863 , 0.058945946395397186 , 0.21173685789108276 } ,
	{ 0.14077748358249664 , -0.20583410561084747 , -0.061315856873989105 , -0.038572292774915695 , 0.09726370126008987 , 0.08227360993623734 , -0.1061725839972496 , -0.2284722626209259 , -0.06064419820904732 , 0.050412267446517944 , 0.027471836656332016 , 0.037830665707588196 , -0.11947411298751831 , -0.22938252985477448 , -0.023103835061192513 , -0.004693250637501478 } ,
	{ -0.1927471160888672 , 0.09194283932447433 , 0.1917729675769806 , 0.19782811403274536 , -0.07189158350229263 , 0.2241150289773941 , -0.10230957716703415 , 0.05069597065448761 , -0.026264037936925888 , -0.011030756868422031 , -0.01278288010507822 , -0.11503507196903229 , -0.06139474734663963 , -0.12886331975460052 , -0.06076419726014137 , -0.17947348952293396 } ,
	{ -0.10160032659769058 , 0.21440473198890686 , 0.13595665991306305 , -0.1537962108850479 , -0.04318782687187195 , -0.04047200828790665 , -0.17047737538814545 , -0.18924860656261444 , -0.11672496050596237 , -0.21185778081417084 , 0.1233912780880928 , 0.09918169677257538 , -0.07325344532728195 , 0.21100178360939026 , -0.05564044415950775 , -0.18631824851036072 } ,
	{ 0.12057826668024063 , -0.12682273983955383 , -0.12276555597782135 , 0.16728703677654266 , -0.04758372902870178 , -0.0246528759598732 , -0.07490278035402298 , 0.010776440612971783 , -0.22044549882411957 , -0.0252566896378994 , 0.07216464728116989 , -0.22263456881046295 , 0.04676894471049309 , -0.02825193665921688 , 0.1896216720342636 , -0.06126118078827858 } ,
	{ 0.14263005554676056 , 0.10836365073919296 , 0.051009804010391235 , -0.2291104644536972 , -0.1584009826183319 , 0.09885969758033752 , -0.1054706871509552 , 0.08521637320518494 , -0.08646883070468903 , 0.2171865701675415 , -0.18473362922668457 , -0.11161305755376816 , -0.214265838265419 , -0.14832165837287903 , -0.21762029826641083 , 0.23129171133041382 } ,
	{ -0.17391608655452728 , -0.21986980736255646 , -0.21713943779468536 , -0.22704751789569855 , -0.2263951450586319 , -0.11216730624437332 , 0.1824420541524887 , 0.2175205945968628 , -0.0015813277568668127 , -0.12593267858028412 , -0.06719157844781876 , -0.09398677200078964 , -0.03913851082324982 , 0.18091857433319092 , 0.04107913002371788 , 0.04605903849005699 } ,
	{ 0.04291772097349167 , 0.1859276443719864 , -0.15898101031780243 , -0.21622732281684875 , -0.0766475647687912 , 0.05465675890445709 , 0.08025864511728287 , -0.23081550002098083 , -0.21343044936656952 , -0.11405981332063675 , 0.061297833919525146 , 0.2262302041053772 , 0.11942323297262192 , 0.059160828590393066 , 0.10317952185869217 , 0.04120583459734917 } ,
	{ -0.08608344942331314 , 0.1680033951997757 , -0.1266554445028305 , 0.05440128967165947 , 0.05144349858164787 , -0.07498171180486679 , -0.22099395096302032 , 0.00806574709713459 , -0.1642606556415558 , -0.14439889788627625 , 0.04377174377441406 , 0.0839489996433258 , -0.03945399075746536 , 0.1091068685054779 , -0.014069292694330215 , 0.17481781542301178 } ,
	{ -0.17205244302749634 , -0.02117309533059597 , 0.22700409591197968 , 0.04293689876794815 , -0.05942089110612869 , -0.05349866300821304 , -0.06303095072507858 , 0.18418383598327637 , 0.13965168595314026 , -0.15249237418174744 , 0.11793912947177887 , -0.12283270806074142 , 0.045959435403347015 , 0.1687447428703308 , 0.07624200731515884 , -0.1996586173772812 } ,
	{ -0.0697300061583519 , 0.06517313420772552 , -0.18506614863872528 , 0.09360641986131668 , -0.026444509625434875 , -0.1221318319439888 , -0.1400107741355896 , 0.1658858358860016 , -0.17466123402118683 , 0.01668921299278736 , -0.13690465688705444 , -0.06185615435242653 , -0.1585460752248764 , -0.011734911240637302 , 0.21740420162677765 , 0.12575723230838776 } ,
	{ 0.08041183650493622 , -0.021061133593320847 , -0.13781550526618958 , -0.1491241604089737 , 0.22054658830165863 , 0.03351170942187309 , -0.07226549088954926 , -0.0869341790676117 , 0.18181338906288147 , -0.1519794464111328 , 0.14586618542671204 , 0.13757111132144928 , 0.06430765986442566 , 0.06840664148330688 , 0.080764539539814 , -0.07182900607585907 } ,
	{ 0.0033017557580024004 , 0.14216960966587067 , 0.22113262116909027 , -0.027936726808547974 , 0.21117965877056122 , -0.17017267644405365 , 0.0031650634482502937 , 0.1540256142616272 , 0.15864990651607513 , 0.09203585982322693 , 0.17195264995098114 , 0.051066406071186066 , 0.1645640730857849 , 0.20946438610553741 , 0.09663613885641098 , 0.22366496920585632 } ,
	{ -0.09229981154203415 , 0.008916079066693783 , -0.1474742889404297 , -0.2216968685388565 , -0.06744988262653351 , 0.22303293645381927 , -0.027184071019291878 , -0.12635438144207 , 0.16461431980133057 , 0.17580315470695496 , 0.11629875004291534 , -0.11396943032741547 , -0.14233680069446564 , 0.11421973258256912 , 0.1761196255683899 , 0.031311217695474625 } ,
	{ -0.04559457302093506 , -0.02709922194480896 , 0.19306974112987518 , -0.15434862673282623 , -0.10454078763723373 , 0.0304426122456789 , -0.22954069077968597 , -0.18513916432857513 , -0.10723826289176941 , -0.11563637107610703 , 0.0194606464356184 , -0.22522498667240143 , 0.17511636018753052 , 0.08156287670135498 , 0.1422697901725769 , -0.11794491112232208 }
};
float32 gru_kernel_candidate[64][16]=
{
	{ -0.1818503737449646 , 0.1595807522535324 , 0.040904320776462555 , -0.18712688982486725 , 0.19071637094020844 , 0.19716544449329376 , -0.09648996591567993 , 0.176297128200531 , -0.05984191969037056 , -0.007972103543579578 , -0.1432543843984604 , 0.18141070008277893 , -0.1151181012392044 , 0.017739294096827507 , 0.04577520862221718 , -0.07254795730113983 } ,
	{ -0.054554201662540436 , 0.21678325533866882 , 0.14023692905902863 , 0.10045100748538971 , 0.020888835191726685 , 0.07239030301570892 , -0.18149548768997192 , 0.05946512147784233 , -0.192194402217865 , -0.20879873633384705 , 0.1398092359304428 , 0.21681362390518188 , 0.04121583700180054 , -0.18024249374866486 , -0.13721494376659393 , -0.14422352612018585 } ,
	{ 0.1651964783668518 , 0.002718547359108925 , 0.21372832357883453 , -0.11803751438856125 , 0.06478817760944366 , -0.1142878457903862 , -0.1291324496269226 , 0.14710618555545807 , 0.1695633977651596 , -0.007052904926240444 , -0.02497982047498226 , -0.21603859961032867 , -0.13151982426643372 , -0.004902769345790148 , -0.08100107312202454 , 0.15629465878009796 } ,
	{ 0.09302745759487152 , 0.18046151101589203 , 0.02122051827609539 , -0.1812814176082611 , 0.1643877774477005 , -0.10359477251768112 , 0.13625569641590118 , -0.2063693404197693 , -0.09020499885082245 , -0.15842820703983307 , -0.08178196102380753 , 0.11243700236082077 , -0.1733110547065735 , -0.09890244156122208 , 0.12124397605657578 , -0.1448243409395218 } ,
	{ 0.1958022266626358 , -0.05347009003162384 , -0.1179097443819046 , 0.20674380660057068 , 0.0312851183116436 , -0.1994941085577011 , 0.04654001072049141 , -0.18586498498916626 , 0.00040486390935257077 , 0.01154518872499466 , 0.0066959448158741 , -0.07946888357400894 , 0.20070010423660278 , 0.10947064310312271 , -0.20357418060302734 , 0.09363184869289398 } ,
	{ -0.17596125602722168 , -0.17302930355072021 , 0.12297942489385605 , -0.06476607918739319 , -0.021964898332953453 , -0.20313160121440887 , 0.017378205433487892 , 0.169089213013649 , -0.1385650485754013 , -0.10227376967668533 , -0.022987259551882744 , -0.06384269893169403 , -0.16583912074565887 , -0.08478695899248123 , 0.07994315028190613 , -0.11424225568771362 } ,
	{ 0.2243034392595291 , 0.19222357869148254 , -0.10464853048324585 , 0.20918764173984528 , 0.21271169185638428 , -0.13686542212963104 , 0.021660655736923218 , 0.2010396271944046 , -0.1608821004629135 , 0.06506416201591492 , 0.026484426110982895 , 0.056983672082424164 , 0.12255389988422394 , -0.19224826991558075 , 0.021280435845255852 , -0.17645101249217987 } ,
	{ -0.06963421404361725 , -0.09600909799337387 , 0.18640686571598053 , 0.20459787547588348 , -0.1655595451593399 , 0.1577426642179489 , -0.15886659920215607 , 0.011572837829589844 , 0.1398269683122635 , -0.15905527770519257 , 0.08477321267127991 , 0.14207223057746887 , 0.21377386152744293 , 0.044131141155958176 , -0.14168132841587067 , -0.21834878623485565 } ,
	{ 0.00257705501280725 , 0.11156462132930756 , 0.2327742725610733 , 0.11229836940765381 , -0.028933433815836906 , -0.03964944928884506 , 0.16892318427562714 , 0.14868763089179993 , 0.050568342208862305 , -0.21905183792114258 , -0.08044638484716415 , -0.2221338003873825 , 0.09414085745811462 , -0.06338848918676376 , -0.0806729793548584 , -0.0567510761320591 } ,
	{ -0.17418818175792694 , 0.04812704399228096 , 0.05881277844309807 , 0.21252666413784027 , 0.2089516669511795 , 0.14584356546401978 , 0.0033265934325754642 , -0.05521528050303459 , 0.029567519202828407 , 0.05924264341592789 , -0.22735998034477234 , 0.04847302660346031 , 0.015392530709505081 , 0.18740445375442505 , 0.1924944519996643 , 0.10321001708507538 } ,
	{ 0.1837090253829956 , 0.04993581399321556 , -0.17808452248573303 , 0.018149331212043762 , -0.06661758571863174 , -0.12521784007549286 , 0.16252706944942474 , 0.14499065279960632 , 0.2237481027841568 , 0.18867963552474976 , 0.09068931639194489 , 0.13618458807468414 , 0.0379982590675354 , 0.011256277561187744 , 0.1638016700744629 , -0.21283753216266632 } ,
	{ 0.016290295869112015 , 0.15355613827705383 , -0.058317068964242935 , 0.03936658427119255 , -0.1456400752067566 , 0.11731261014938354 , -0.2285255342721939 , 0.11033191531896591 , 0.22978489100933075 , -0.1821126639842987 , -0.007735615596175194 , -0.08396490663290024 , 0.2238079458475113 , 0.19802097976207733 , 0.08904708921909332 , -0.22507664561271667 } ,
	{ 0.0596354603767395 , 0.04272124543786049 , 0.009415234439074993 , -0.16529302299022675 , -0.19257371127605438 , -0.07806754112243652 , 0.17141841351985931 , -0.06219371780753136 , -0.15102660655975342 , -0.12405823171138763 , 0.15602119266986847 , 0.2055778056383133 , 0.16225847601890564 , 0.15685874223709106 , -0.19329653680324554 , -0.04258028417825699 } ,
	{ -0.014571272768080235 , -0.13742408156394958 , 0.1558905392885208 , 0.09539281576871872 , -0.09227760881185532 , 0.06903951615095139 , -0.14191098511219025 , 0.08437232673168182 , 0.1180490106344223 , -0.04241890832781792 , -0.03438887372612953 , 0.02047804929316044 , -0.06745199859142303 , -0.2019173502922058 , -0.15875577926635742 , -0.13417863845825195 } ,
	{ 0.0991978719830513 , 0.09668314456939697 , -0.10489220917224884 , -0.06610441952943802 , -0.12506963312625885 , 0.2094355672597885 , -0.21712858974933624 , 0.11459404230117798 , 0.005453417077660561 , -0.1722455471754074 , -0.06684401631355286 , 0.14880676567554474 , -0.14471930265426636 , 0.12148451060056686 , -0.05223055183887482 , 0.08974141627550125 } ,
	{ 0.08636952191591263 , -0.0033551680389791727 , -0.16546599566936493 , -0.0645466148853302 , 0.1673876941204071 , -0.1014888808131218 , -0.03473084419965744 , -0.18502311408519745 , -0.08873888105154037 , 0.1821747124195099 , -0.013415774330496788 , 0.13481785356998444 , 0.21019122004508972 , 0.03659328073263168 , -0.2057959884405136 , -0.042223814874887466 } ,
	{ 0.16869869828224182 , 0.015164737589657307 , 0.15364836156368256 , -0.18429246544837952 , -0.2185424417257309 , -0.16659097373485565 , -0.018780063837766647 , -0.22942979633808136 , -0.01698911003768444 , 0.10738295316696167 , -0.22940212488174438 , 0.020674744620919228 , 0.008022933267056942 , 0.02999386191368103 , 0.10830820351839066 , -0.09473684430122375 } ,
	{ 0.22250857949256897 , 0.12378469109535217 , 0.19631776213645935 , 0.0026071094907820225 , -0.12844982743263245 , -0.2103189378976822 , 0.1863582730293274 , 0.0923583060503006 , -0.06246683746576309 , 0.15531441569328308 , -0.18595446646213531 , 0.06884647160768509 , 0.13665351271629333 , -0.10856148600578308 , 0.09007498621940613 , -0.18553070724010468 } ,
	{ -0.06264664232730865 , -0.0003167223767377436 , 0.2190534919500351 , 0.14404819905757904 , -0.03360997885465622 , -0.011334377340972424 , -0.09623593837022781 , 0.06583629548549652 , -0.16850697994232178 , -0.028983764350414276 , -0.13945898413658142 , 0.08203470706939697 , -0.05758083984255791 , 0.15191735327243805 , -0.08927304297685623 , -0.15395277738571167 } ,
	{ -0.1709754317998886 , 0.04442651569843292 , -0.11367124319076538 , -0.15457375347614288 , -0.15994791686534882 , 0.21681615710258484 , -0.09219769388437271 , -0.07988201826810837 , -0.1796589344739914 , -0.1873379796743393 , 0.18433836102485657 , 0.08552459627389908 , 0.10820522904396057 , 0.15437403321266174 , 0.15639929473400116 , 0.1940392553806305 } ,
	{ -0.004483819007873535 , -0.08997175842523575 , 0.11477621644735336 , -0.1949123740196228 , -0.16127942502498627 , -0.17496000230312347 , -0.04656554013490677 , 0.0571955069899559 , -0.005464734509587288 , -0.21351492404937744 , -0.08479242026805878 , -0.08291572332382202 , -0.19576291739940643 , 0.016928397119045258 , -0.17203699052333832 , 0.04716535657644272 } ,
	{ 0.1305471658706665 , -0.1908702403306961 , -0.17349107563495636 , -0.22390468418598175 , 0.18179257214069366 , 0.1860450655221939 , 0.12444458156824112 , -0.21560761332511902 , -0.1690591722726822 , -0.15030285716056824 , 0.14209333062171936 , -0.23149248957633972 , 0.2094426155090332 , 0.1599772721529007 , -0.202679842710495 , -0.11962253600358963 } ,
	{ -0.038955505937337875 , -0.05008721351623535 , -0.10855463147163391 , 0.05936052277684212 , 0.009998858906328678 , -0.0010384792694821954 , 0.14235495030879974 , -0.21021197736263275 , -0.07390262186527252 , -0.16978195309638977 , 0.19080403447151184 , 0.22904153168201447 , 0.1970168501138687 , -0.045669153332710266 , 0.03141682222485542 , 0.031266260892152786 } ,
	{ -0.12281807512044907 , -0.04793821647763252 , -0.06839481741189957 , -0.20988035202026367 , -0.022096823900938034 , -0.18610697984695435 , 0.12604598701000214 , -0.0821811854839325 , -0.049181729555130005 , 0.12104568630456924 , 0.19137568771839142 , -0.009429898113012314 , -0.13070227205753326 , -0.1276598870754242 , -0.19899873435497284 , -0.11364331841468811 } ,
	{ -0.04798513278365135 , -0.021642711013555527 , 0.21980324387550354 , -0.0018853286746889353 , -0.1318192481994629 , 0.11300258338451385 , 0.20216181874275208 , -0.11226429790258408 , -0.08229630440473557 , 0.05724389851093292 , -0.044444482773542404 , 0.016579188406467438 , -0.027974672615528107 , -0.12438084930181503 , -0.22321508824825287 , 0.0972207561135292 } ,
	{ 0.1916537582874298 , -0.18227846920490265 , -0.03078329749405384 , 0.19048342108726501 , 0.19778382778167725 , 0.2052532136440277 , 0.06132771074771881 , -0.21795699000358582 , -0.14886708557605743 , 0.057939108461141586 , 0.11175154894590378 , -0.07518166303634644 , 0.10211990028619766 , -0.01365712471306324 , 0.09158983826637268 , 0.03218201920390129 } ,
	{ 0.034062355756759644 , -0.04122078791260719 , 0.12857235968112946 , -0.09476401656866074 , -0.22922909259796143 , 0.10393289476633072 , 0.0044121770188212395 , 0.12626662850379944 , -0.2055956870317459 , 0.14765995740890503 , 0.1954043060541153 , 0.09309183806180954 , 0.09207507967948914 , 0.0011796113103628159 , -0.1611427217721939 , -0.050659146159887314 } ,
	{ 0.06326816231012344 , -0.12166593968868256 , -0.15280781686306 , -0.21831175684928894 , 0.22719629108905792 , 0.03557168319821358 , -0.02529299445450306 , 0.04063023626804352 , 0.03519954904913902 , -0.11120577156543732 , -0.02180921658873558 , -0.22634229063987732 , 0.1137228012084961 , 0.13458052277565002 , -0.15007859468460083 , -0.22149235010147095 } ,
	{ -0.018864000216126442 , 0.05575323849916458 , 0.0914435014128685 , 0.2106775939464569 , -0.10881198197603226 , -0.1848798543214798 , 0.02484828047454357 , 0.11750797927379608 , -0.190397247672081 , -0.03394293412566185 , 0.21046921610832214 , -0.11645517498254776 , -0.06991703808307648 , -0.021561823785305023 , -0.1177898645401001 , 0.16355390846729279 } ,
	{ 0.007810380309820175 , 0.03127425163984299 , 0.18712754547595978 , -0.09066861867904663 , -0.16680409014225006 , 0.025021875277161598 , -0.17398281395435333 , 0.1986643224954605 , -0.13300831615924835 , -0.04355888068675995 , 0.11878739297389984 , 0.05037353187799454 , 0.14277900755405426 , 0.03575665503740311 , -0.1746494472026825 , 0.13614480197429657 } ,
	{ 0.14001139998435974 , -0.22109092772006989 , 0.21751482784748077 , 0.17859375476837158 , -0.1098032221198082 , -0.06202540174126625 , 0.15182821452617645 , 0.021780680865049362 , 0.14486712217330933 , 0.031926579773426056 , -0.1266140639781952 , -0.06377257406711578 , 0.051405951380729675 , -0.11666569113731384 , -0.222468763589859 , -0.1723165363073349 } ,
	{ 0.030124414712190628 , 0.22530290484428406 , 0.023321572691202164 , -0.11991997063159943 , 0.08340761065483093 , -0.1395096331834793 , 0.08868010342121124 , 0.08039680868387222 , -0.17949236929416656 , -0.22171108424663544 , -0.1903046816587448 , 0.2084360420703888 , -0.14472706615924835 , 0.20474182069301605 , -0.14365580677986145 , -0.1283635050058365 } ,
	{ 0.14605918526649475 , -0.12041254341602325 , -0.17000295221805573 , -0.010748105123639107 , 0.052947696298360825 , -0.20223309099674225 , 0.11130333691835403 , -0.14389446377754211 , -0.12068219482898712 , -0.004364443011581898 , -0.1798674613237381 , -0.14387047290802002 , -0.17186497151851654 , -0.009324139915406704 , 0.01374032348394394 , 0.09095261991024017 } ,
	{ -0.118730828166008 , -0.11879317462444305 , -0.17914225161075592 , 0.05822747200727463 , -0.2288200855255127 , -0.16288816928863525 , 0.08785299956798553 , 0.07718924432992935 , 0.20988214015960693 , -0.17987751960754395 , 0.20128341019153595 , 0.16761070489883423 , -0.07541483640670776 , -0.1513163149356842 , -0.053320690989494324 , -0.13036704063415527 } ,
	{ -0.20953784883022308 , -0.22145484387874603 , 0.16543427109718323 , -0.1608484387397766 , 0.08371450752019882 , 0.1644337922334671 , 0.1539744883775711 , 0.14486061036586761 , -0.12963201105594635 , 0.10898945480585098 , 0.05257446691393852 , 0.1449568122625351 , 0.09203287959098816 , -0.0225900299847126 , -0.18279172480106354 , -0.1927281767129898 } ,
	{ 0.013482719659805298 , 0.15939441323280334 , -0.2106686532497406 , -0.1782120019197464 , 0.05652337893843651 , -0.1297038346529007 , -0.10675796121358871 , -0.06152592971920967 , 0.013710853643715382 , 0.04245492070913315 , 0.06981910765171051 , -0.15278173983097076 , 0.15447966754436493 , -0.21391601860523224 , 0.11341437697410583 , 0.08113901317119598 } ,
	{ -0.1415487378835678 , 0.21244461834430695 , 0.03190195560455322 , 0.1881888061761856 , -0.10208608955144882 , -0.07931601256132126 , -0.22998541593551636 , 0.13943181931972504 , -0.11058284342288971 , -0.18011802434921265 , 0.2197851836681366 , 0.009923978708684444 , 0.09108679741621017 , 0.21989023685455322 , 0.07899763435125351 , 0.04300182685256004 } ,
	{ 0.010764732025563717 , 0.21658532321453094 , 0.0846305638551712 , -0.08163115382194519 , 0.06020921841263771 , -0.18859034776687622 , 0.016774524003267288 , 0.035126473754644394 , 0.1905716359615326 , 0.1887284219264984 , 0.11139673739671707 , -0.08517137169837952 , 0.10777783393859863 , 0.2050858587026596 , -0.01935248263180256 , -0.19267114996910095 } ,
	{ 0.19690491259098053 , 0.08057453483343124 , -0.034757405519485474 , -0.18008077144622803 , 0.21757638454437256 , 0.12772676348686218 , -0.004603000357747078 , -0.08886018395423889 , -0.03195099160075188 , 0.21358753740787506 , -0.1459629237651825 , -0.11624468117952347 , -0.18183225393295288 , 0.1568642258644104 , -0.052253834903240204 , 0.10311681777238846 } ,
	{ -0.07588915526866913 , -0.06983629614114761 , -0.024835113435983658 , 0.13081838190555573 , -0.22571082413196564 , 0.0043662237003445625 , -0.10179558396339417 , -0.06294926255941391 , 0.13170930743217468 , -0.10824549198150635 , 0.08813406527042389 , -0.046409446746110916 , -0.08957379311323166 , -0.20591093599796295 , -0.1043575182557106 , -0.0052439384162425995 } ,
	{ 0.17829491198062897 , 0.22001264989376068 , -0.1937217265367508 , -0.042502667754888535 , 0.10987231135368347 , 0.049589332193136215 , 0.14585278928279877 , -0.007887152023613453 , -0.06803367286920547 , 0.15954887866973877 , 0.1770976036787033 , -0.21395480632781982 , -0.18286971747875214 , 0.2243311107158661 , -0.2209479808807373 , 0.1573127806186676 } ,
	{ -0.13671553134918213 , 0.19892311096191406 , 0.07059361040592194 , 0.05449870228767395 , -0.15789511799812317 , -0.04732154682278633 , -0.06446659564971924 , 0.15173974633216858 , 0.0036614337004721165 , 0.10160092264413834 , -0.18768471479415894 , -0.11069247126579285 , -0.048888035118579865 , 0.230244979262352 , -0.19276317954063416 , -0.17020171880722046 } ,
	{ 0.11659174412488937 , -0.08137354254722595 , 0.22795572876930237 , -0.03618926927447319 , 0.04348837211728096 , -0.17622323334217072 , -0.13653095066547394 , 0.061294324696063995 , -0.1614600121974945 , 0.015828831121325493 , -0.16660979390144348 , 0.19164544343948364 , 0.09954386949539185 , -0.16734087467193604 , -0.042661599814891815 , 0.18902942538261414 } ,
	{ 0.10496902465820312 , -0.10845080763101578 , 0.09538352489471436 , -0.06628631055355072 , -0.08981608599424362 , 0.2119201421737671 , 0.2149125337600708 , 0.09862907230854034 , 0.0132325803861022 , 0.020785842090845108 , 0.21417954564094543 , -0.2173803448677063 , 0.18980437517166138 , -0.08576519787311554 , 0.15268827974796295 , 0.008810384199023247 } ,
	{ 0.156948059797287 , -0.16144102811813354 , -0.037914253771305084 , -0.15912970900535583 , -0.019405661150813103 , -0.05009893327951431 , 0.1646813601255417 , 0.02521473541855812 , 0.08772362768650055 , -0.15543624758720398 , 0.17935630679130554 , -0.15097485482692719 , -0.21590889990329742 , -0.10688314586877823 , 0.08458531647920609 , 0.1003972589969635 } ,
	{ -0.08523659408092499 , 0.01757199689745903 , -0.09997127205133438 , 0.2053166627883911 , -0.09212760627269745 , 0.09782608598470688 , 0.021419191733002663 , 0.02640567347407341 , 0.18781612813472748 , -0.06349056959152222 , -0.10964013636112213 , 0.13061706721782684 , -0.22448551654815674 , 0.020808959379792213 , -0.14106658101081848 , 0.0659397765994072 } ,
	{ 0.02444128319621086 , 0.012479613535106182 , 0.1422954946756363 , 0.2267923504114151 , -0.005675935186445713 , -0.23238614201545715 , 0.19908113777637482 , 0.05918072909116745 , 0.10839855670928955 , 0.09610239416360855 , 0.12104178965091705 , 0.2196776270866394 , -0.18687330186367035 , 0.12548315525054932 , -0.09751135855913162 , 0.16338659822940826 } ,
	{ 0.12159838527441025 , 0.10990637540817261 , 0.20346935093402863 , -0.117047019302845 , 0.1637933999300003 , -0.20762260258197784 , 0.00492884311825037 , -0.18225495517253876 , 0.04656742513179779 , 0.14135907590389252 , -0.216089129447937 , -0.06995926052331924 , 0.03612767532467842 , 0.20840266346931458 , 0.05779356509447098 , 0.04942077025771141 } ,
	{ 0.09884967654943466 , 0.02133476547896862 , -0.18279296159744263 , 0.1343238800764084 , -0.01751003973186016 , 0.0624566450715065 , -0.16285967826843262 , -0.18008317053318024 , 0.10516376048326492 , 0.1492823362350464 , 0.2235516607761383 , 0.21646150946617126 , -0.2185623198747635 , 0.048530254513025284 , 0.2103864848613739 , 0.14444725215435028 } ,
	{ 0.15587538480758667 , -0.048521947115659714 , 0.15726082026958466 , -0.22217154502868652 , 0.20384790003299713 , -0.1465756893157959 , 0.1492270827293396 , -0.10102635622024536 , -0.1989106684923172 , -0.11812153458595276 , 0.03762335330247879 , 0.06604871898889542 , -0.2190590500831604 , -0.1636364907026291 , 0.06893303245306015 , 0.10700984299182892 } ,
	{ -0.009005596861243248 , 0.14242808520793915 , 0.17854562401771545 , -0.15100881457328796 , -0.01630472019314766 , 0.15250341594219208 , 0.11062576621770859 , 0.11178206652402878 , -0.06252963840961456 , 0.228648379445076 , -0.2094082087278366 , 0.15602488815784454 , -0.19315607845783234 , 0.1484057605266571 , 0.1149773821234703 , -0.16667385399341583 } ,
	{ 0.027933673933148384 , 0.09704405814409256 , -0.0024628760293126106 , -0.1919364035129547 , 0.01747768558561802 , -0.08484779298305511 , 0.13066521286964417 , -0.20272621512413025 , 0.2220015674829483 , 0.14284537732601166 , 0.027793971821665764 , -0.029474565759301186 , -0.15139174461364746 , -0.20539714395999908 , 0.18967139720916748 , 0.11220371723175049 } ,
	{ 0.13372471928596497 , -0.22846719622612 , 0.05086681991815567 , -0.07532442361116409 , -0.22668886184692383 , 0.11440473794937134 , -0.10983911156654358 , -0.18411216139793396 , 0.21202774345874786 , -0.11872261762619019 , -0.19977082312107086 , -0.06906713545322418 , -0.043374598026275635 , 0.08069183677434921 , -0.08279776573181152 , 0.06565995514392853 } ,
	{ 0.22029796242713928 , -0.20748113095760345 , -0.09186571836471558 , -0.17859408259391785 , 0.08049119263887405 , 0.17326058447360992 , 0.11823053658008575 , 0.05625128000974655 , 0.12974590063095093 , -0.10788238793611526 , 0.21442963182926178 , 0.006392438896000385 , 0.18783532083034515 , 0.14616160094738007 , 0.12123889476060867 , 0.18002983927726746 } ,
	{ -0.0659368708729744 , -0.17898114025592804 , 0.17998598515987396 , -0.08536587655544281 , 0.19236303865909576 , -0.08720928430557251 , -0.003922307398170233 , -0.03029894456267357 , -0.15849848091602325 , -0.06836504489183426 , -0.06806765496730804 , 0.21882615983486176 , 0.20669043064117432 , 0.20642268657684326 , 0.054924316704273224 , 0.18586909770965576 } ,
	{ 0.03186946362257004 , 0.10112415254116058 , 0.05083028972148895 , -0.1875893473625183 , -0.05835644528269768 , -0.08353377133607864 , -0.06051434576511383 , 0.21884530782699585 , 0.20560358464717865 , 0.002208124613389373 , 0.06392787396907806 , 0.056802038103342056 , -0.00018535275012254715 , -0.05515215918421745 , 0.0012292551109567285 , -0.18694184720516205 } ,
	{ 0.2025182694196701 , 0.1918504387140274 , -0.1160896047949791 , -0.19089284539222717 , -0.18525592982769012 , -0.028928197920322418 , -0.005689654499292374 , -0.04954410344362259 , 0.0036490093916654587 , -0.08160053938627243 , -0.007595495320856571 , 0.14900167286396027 , -0.21371054649353027 , 0.19733783602714539 , 0.14574426412582397 , 0.1122945100069046 } ,
	{ 0.052369631826877594 , 0.19359079003334045 , -0.1725648045539856 , 0.14687982201576233 , -0.15797840058803558 , 0.05349607393145561 , 0.19242331385612488 , -0.08055250346660614 , 0.12350372225046158 , -0.1500123143196106 , -0.059379927814006805 , -0.017216993495821953 , -0.072597436606884 , 0.13802455365657806 , -0.02582370676100254 , 0.10179919004440308 } ,
	{ 0.06890874356031418 , -0.025607125833630562 , 0.028404369950294495 , 0.0804469957947731 , -0.1181444600224495 , -0.21045629680156708 , 0.09076470136642456 , 0.03737294673919678 , -0.17122407257556915 , -0.14269326627254486 , 0.1040954664349556 , -0.06847669184207916 , 0.011801987886428833 , 0.18819420039653778 , 0.01567903347313404 , -0.011655038222670555 } ,
	{ 0.08884701132774353 , 0.22067201137542725 , -0.12752822041511536 , 0.1267038881778717 , -0.1877530962228775 , 0.20130033791065216 , -0.18572326004505157 , -0.15557695925235748 , 0.12959760427474976 , -0.16953732073307037 , 0.002973290393128991 , -0.09480591863393784 , -0.2112838625907898 , -0.18546590209007263 , 0.10802336782217026 , 0.15858420729637146 } ,
	{ 0.06586705893278122 , 0.10208386927843094 , -0.14232230186462402 , 0.15888120234012604 , -0.16700921952724457 , 0.010405668057501316 , 0.02973361685872078 , -0.03427034988999367 , 0.02089877985417843 , 0.10581548511981964 , 0.0497928149998188 , 0.1556359827518463 , -0.07321600615978241 , -0.06155197694897652 , -0.10711490362882614 , 0.06780113279819489 } ,
	{ 0.22916869819164276 , 0.18549583852291107 , 0.0892120748758316 , -0.12167187035083771 , -0.04627639427781105 , -0.15322142839431763 , 0.20951078832149506 , -0.018490834161639214 , 0.03470563888549805 , 0.019207624718546867 , -0.07684226334095001 , 0.13070707023143768 , -0.0011330738198012114 , -0.10138661414384842 , 0.0718657374382019 , 0.06788415461778641 } ,
	{ 0.07872340083122253 , -0.06545329838991165 , -0.12112639844417572 , 0.1323661506175995 , 0.1616033911705017 , 0.021007077768445015 , -0.10812433063983917 , -0.18800923228263855 , 0.06440769135951996 , 0.19253428280353546 , 0.21448726952075958 , 0.008982771076261997 , 0.22506360709667206 , -0.02163168042898178 , 0.2076566219329834 , -0.15125848352909088 } ,
	{ 0.06375694274902344 , 0.09950201958417892 , 0.09114581346511841 , 0.01377488300204277 , 0.22540266811847687 , 0.06357834488153458 , 0.18570230901241302 , -0.1326213777065277 , -0.11833792924880981 , -0.19224783778190613 , 0.14076486229896545 , -0.12172085046768188 , -0.08350027352571487 , 0.008862579241394997 , -0.1897350549697876 , 0.1725323647260666 }
};

float32 gru_recurrent_kernel_update[16][16]=
{
	{ -0.40212884545326233 , 0.006655204575508833 , 0.28615784645080566 , -0.0638061910867691 , -0.053440846502780914 , 0.026871666312217712 , 0.10002550482749939 , -0.05071123316884041 , 0.12062956392765045 , -0.013602999970316887 , 0.039998285472393036 , 0.18187569081783295 , 0.14805486798286438 , 0.002788362791761756 , -0.032215047627687454 , 0.12844018638134003 } ,
	{ -0.12032905220985413 , -0.05088245868682861 , -0.08999637514352798 , 0.02009868435561657 , 0.09403778612613678 , 0.2714374363422394 , -0.025997033342719078 , -0.13477887213230133 , 0.10728461295366287 , 0.28488779067993164 , 0.22237782180309296 , 0.21260863542556763 , -0.2533417344093323 , 0.26843327283859253 , 0.04671443626284599 , 0.008808904327452183 } ,
	{ 0.05856126919388771 , 0.09683337807655334 , -0.10651890188455582 , -0.007356892339885235 , 0.16342398524284363 , 0.06549675017595291 , -0.09343338012695312 , 0.1267194151878357 , -0.20960909128189087 , -0.2113865613937378 , -0.14342236518859863 , -0.09021160751581192 , -0.11271106451749802 , 0.06534469127655029 , 0.05953837186098099 , 0.05058195814490318 } ,
	{ 0.14681386947631836 , 0.15388530492782593 , -0.14217060804367065 , 0.1646021157503128 , -0.15656466782093048 , -0.055377714335918427 , 0.029300201684236526 , -0.15896324813365936 , 0.15730969607830048 , -0.15405374765396118 , -0.021611489355564117 , 0.18037071824073792 , -0.03607890382409096 , -0.2011694312095642 , -0.17556391656398773 , 0.12134797126054764 } ,
	{ 0.32705897092819214 , 0.04493919014930725 , 0.019566526636481285 , 0.007372124120593071 , -0.14316092431545258 , 0.12339740246534348 , 0.12592226266860962 , -0.18187935650348663 , 0.18679964542388916 , -0.04634956270456314 , 0.11015543341636658 , 0.03125956282019615 , 0.11857049912214279 , -0.001728953211568296 , 0.2543114721775055 , 0.11835110187530518 } ,
	{ -0.04632682353258133 , -0.22295503318309784 , -0.0010077949846163392 , 0.05311731994152069 , -0.2592768967151642 , -0.06368188560009003 , -0.21212533116340637 , -0.12987178564071655 , -0.10567569732666016 , -0.12421662360429764 , 0.02765144407749176 , 0.10525091737508774 , -0.100460946559906 , 0.07143285125494003 , 0.16584430634975433 , 0.006989256013184786 } ,
	{ 0.266938716173172 , -0.10328440368175507 , -0.08922304213047028 , -0.17181123793125153 , -0.07525132596492767 , 0.0939972847700119 , -0.16771411895751953 , 0.041039809584617615 , 0.09171155840158463 , -0.1252698302268982 , -0.0277851689606905 , 0.2852199971675873 , -0.05527732893824577 , 0.023636875674128532 , -0.24082009494304657 , -0.14161863923072815 } ,
	{ 0.05965114012360573 , -0.1913689374923706 , 0.013933783397078514 , 0.2045634686946869 , 0.030087336897850037 , -0.043898940086364746 , -0.11980147659778595 , 0.051289040595293045 , 0.09553614258766174 , 0.12749086320400238 , -0.12443845719099045 , -0.07354539632797241 , 0.28022196888923645 , -0.07230186462402344 , 0.20180362462997437 , -0.12247733771800995 } ,
	{ -0.06468380242586136 , -0.14812162518501282 , -0.0025228827726095915 , -0.012543933466076851 , 0.026870377361774445 , -0.22985266149044037 , 0.149383082985878 , -0.1441216915845871 , -0.19307981431484222 , -0.04374963790178299 , -0.034674935042858124 , 0.1340387463569641 , -0.013390249572694302 , -0.04822511598467827 , 0.08086960017681122 , -0.16319528222084045 } ,
	{ 0.03196360543370247 , -0.09267015010118484 , -0.0854119285941124 , 0.12377770245075226 , 0.18509575724601746 , -0.007476136554032564 , 0.3404228687286377 , -0.26036199927330017 , -0.1877763271331787 , -0.018032466992735863 , -0.07891348749399185 , 0.026638466864824295 , -0.1529712975025177 , 0.2505853772163391 , -0.3836158812046051 , -0.0905919000506401 } ,
	{ -0.028015609830617905 , -0.18525642156600952 , 0.08258090168237686 , -0.22867372632026672 , 0.34183943271636963 , -0.1495848000049591 , -0.037752311676740646 , -0.16014601290225983 , 0.3583959639072418 , 0.06473107635974884 , -0.21635568141937256 , -0.07682888954877853 , -0.16815590858459473 , -0.0631677582859993 , 0.07738911360502243 , -0.05557439848780632 } ,
	{ -0.05585528910160065 , 0.10956694930791855 , -0.35373610258102417 , -0.09336869418621063 , 0.06298941373825073 , 0.15931129455566406 , -0.07495873421430588 , 0.005293394438922405 , 0.18141278624534607 , 0.06303013116121292 , 0.02156144008040428 , 0.03601843863725662 , 0.13882313668727875 , -0.07961790263652802 , 0.020447827875614166 , -0.264477401971817 } ,
	{ 0.20984864234924316 , -0.15625207126140594 , 0.12399306893348694 , 0.08290897309780121 , 0.35454535484313965 , -0.11827576160430908 , -0.10885036736726761 , 0.06385309249162674 , 0.16213682293891907 , 0.023585550487041473 , 0.02999906614422798 , -0.09084752202033997 , -0.04281006008386612 , 0.16022814810276031 , -0.005063184536993504 , -0.04564744606614113 } ,
	{ 0.005328732542693615 , 0.10407202690839767 , 0.08953845500946045 , 0.18923620879650116 , -0.24861939251422882 , 0.3041283190250397 , 0.10894808173179626 , -0.17589542269706726 , -0.0026458585634827614 , 0.09747456759214401 , -0.35178136825561523 , 0.011711249127984047 , -0.0649949163198471 , 0.13541893661022186 , -0.025728868320584297 , -0.2252887785434723 } ,
	{ -0.07508347928524017 , -0.05883369594812393 , 0.027044489979743958 , 0.2015097290277481 , 0.04782742261886597 , -0.011244582943618298 , 0.1461629718542099 , 0.2067372053861618 , -0.15643428266048431 , -0.24451768398284912 , 0.074598029255867 , -0.1267831176519394 , 0.14934860169887543 , -0.07137969881296158 , 0.08913576602935791 , 0.010099492035806179 } ,
	{ 0.04851832985877991 , 0.16500642895698547 , -0.166665181517601 , 0.005478545092046261 , -0.015480967238545418 , 0.033086080104112625 , 0.02148595079779625 , 0.19230708479881287 , 0.060873448848724365 , 0.09308943897485733 , -0.06223238632082939 , 0.032375019043684006 , -0.29677775502204895 , -0.16053134202957153 , -0.0882396548986435 , -0.12308552116155624 }
};
float32 gru_recurrent_kernel_reset[16][16]=
{
	{ 0.1502513587474823 , 0.16567063331604004 , 0.018643852323293686 , -0.26977506279945374 , -0.157892107963562 , 0.09496179223060608 , 0.14653824269771576 , 0.22047242522239685 , -0.22723768651485443 , 0.16910479962825775 , -0.2209920734167099 , -0.04839944466948509 , 0.08146601170301437 , -0.2749951481819153 , 0.023823626339435577 , 0.11896657198667526 } ,
	{ -0.1411515176296234 , 0.09190616011619568 , -0.030836528167128563 , 0.2477637529373169 , -0.10009856522083282 , 0.28941404819488525 , 0.1625952124595642 , -0.2074732929468155 , 0.14107148349285126 , -0.020418642088770866 , -0.026020048186182976 , -0.07606548815965652 , -0.022170333191752434 , 0.022106856107711792 , -0.14151108264923096 , 0.05411757528781891 } ,
	{ 0.058844953775405884 , -0.15395648777484894 , -0.049525994807481766 , -0.1663406640291214 , 0.2722617983818054 , 0.25251078605651855 , 0.09870264679193497 , 0.04507741332054138 , 0.050258323550224304 , -0.1374547928571701 , -0.12586723268032074 , 0.04896773025393486 , -0.0274516474455595 , 0.04840888828039169 , 0.07911661267280579 , 0.16918234527111053 } ,
	{ 0.13495780527591705 , -0.08561316132545471 , 0.11502417922019958 , 0.04774842411279678 , 0.034269265830516815 , 0.03209826350212097 , 0.1041547954082489 , -0.09822075814008713 , -0.06324465572834015 , -0.05196109786629677 , 0.08443990349769592 , 0.08757543563842773 , 0.03771556541323662 , 0.05214551091194153 , 0.14182184636592865 , 0.1687774509191513 } ,
	{ 0.10232459753751755 , 0.13299906253814697 , -0.10979117453098297 , 0.30310919880867004 , 0.14639027416706085 , 0.0994575023651123 , 0.17386960983276367 , 0.18062788248062134 , -0.05206746235489845 , 0.06763922423124313 , -0.16274487972259521 , 0.12194798141717911 , 0.265093594789505 , 0.1443423330783844 , -0.01000179909169674 , 0.021878542378544807 } ,
	{ 0.01681152544915676 , 0.11047530919313431 , 0.02634378708899021 , 0.04783724620938301 , 0.08148316293954849 , 0.14744693040847778 , -0.09762623906135559 , -0.20305556058883667 , -0.040287408977746964 , -0.1844860017299652 , -0.06219448149204254 , -0.09157722443342209 , -0.11571970582008362 , -0.22221839427947998 , -0.2877199351787567 , -0.04459657520055771 } ,
	{ -0.3090250492095947 , -0.05364080145955086 , -0.05839548259973526 , 0.055575139820575714 , -0.04393237829208374 , -0.10958049446344376 , 0.1999596357345581 , 0.36650002002716064 , -0.09444739669561386 , -0.13786207139492035 , 0.046974897384643555 , -0.09422525018453598 , 0.10673104971647263 , 0.014085455797612667 , -0.238268181681633 , 0.006022140849381685 } ,
	{ -0.17350129783153534 , 0.1639092117547989 , -0.18505217134952545 , -0.010053382255136967 , 0.22873325645923615 , 0.25967860221862793 , -0.04480607807636261 , 0.1899866759777069 , 0.0737612247467041 , 0.09620055556297302 , 0.25232285261154175 , -0.000749406055547297 , 0.14751911163330078 , -0.20440082252025604 , -0.02079356461763382 , -0.0023449845612049103 } ,
	{ -0.011903049424290657 , -0.13316066563129425 , 0.0022150392178446054 , 0.07594330608844757 , -0.14233393967151642 , -0.12187596410512924 , 0.10097230970859528 , 0.06523218005895615 , -0.19178859889507294 , -0.08340990543365479 , -0.08574278652667999 , 0.15663538873195648 , 0.055665113031864166 , -0.18706128001213074 , -0.08349224179983139 , -0.3586962819099426 } ,
	{ 0.07499953359365463 , -0.028167778626084328 , -0.2612905502319336 , -0.045926954597234726 , 0.04673221334815025 , 0.17237429320812225 , -0.16727203130722046 , -0.04353252798318863 , -0.040703244507312775 , -0.1482458859682083 , -0.020849475637078285 , 0.0029599666595458984 , -0.01258405763655901 , -0.06695841997861862 , 0.032974839210510254 , 0.08655635267496109 } ,
	{ 0.01912008412182331 , -0.0069830408319830894 , 0.27643391489982605 , 0.14380565285682678 , 0.027896840125322342 , 0.003657588269561529 , -0.006592420395463705 , -0.03003787249326706 , -0.16976386308670044 , -0.0858062356710434 , -0.13005441427230835 , 0.12266574800014496 , -0.15266573429107666 , 0.12525077164173126 , -0.023503603413701057 , -0.13302239775657654 } ,
	{ -0.058043222874403 , -0.1900089681148529 , 0.056295908987522125 , -0.2443617731332779 , 0.2244284600019455 , 0.0319816991686821 , -0.06870158016681671 , 0.004414951428771019 , -0.1499609798192978 , -0.16263847053050995 , -0.1808735877275467 , -0.2116154134273529 , -0.025427399203181267 , 0.005142074078321457 , -0.03951113298535347 , -0.07967114448547363 } ,
	{ 0.0007631259504705667 , -0.11791279166936874 , -0.29316335916519165 , 0.1103644073009491 , 0.02221234329044819 , 0.05893842875957489 , -0.045365169644355774 , 0.044374123215675354 , -0.2841142416000366 , 0.27025020122528076 , -0.14509271085262299 , -0.1579499989748001 , 0.001465375768020749 , -0.04552806541323662 , 0.21119922399520874 , 0.04030110314488411 } ,
	{ 0.07090593874454498 , -0.041583091020584106 , 0.094296395778656 , 0.11110562831163406 , 0.26778391003608704 , -0.12886416912078857 , 0.2082296758890152 , 0.10275821387767792 , -0.019943000748753548 , 0.07136514037847519 , -0.2791023850440979 , -0.07120252400636673 , -0.1801912635564804 , -0.1415034532546997 , 0.12143834680318832 , 0.048048876225948334 } ,
	{ -0.21702012419700623 , -0.31968921422958374 , 0.1929573267698288 , 0.29836562275886536 , -0.1877865344285965 , 0.34143826365470886 , 0.19396845996379852 , 0.049510374665260315 , -0.004984755534678698 , -0.06195611506700516 , -0.2023177146911621 , -0.04233037680387497 , -0.13068073987960815 , 0.0856095626950264 , 0.09966981410980225 , -0.03600873425602913 } ,
	{ -0.2060978263616562 , -0.01754903420805931 , -0.03034227155148983 , -0.10542967915534973 , -0.13764499127864838 , 0.03894413262605667 , 0.17117765545845032 , 0.020518425852060318 , -0.16982999444007874 , 0.1313125640153885 , 0.19776563346385956 , 0.0636192113161087 , 0.06024748459458351 , -0.2943356931209564 , 0.0960191935300827 , -0.09526445716619492 }
};
float32 gru_recurrent_kernel_candidate[16][16]=
{
	{ -0.22738119959831238 , -0.19150304794311523 , 0.09037432074546814 , -0.03927748650312424 , 0.01974286139011383 , -0.17716427147388458 , -0.04934331402182579 , 0.07091863453388214 , 0.04201548174023628 , -0.1022925153374672 , 0.09085720777511597 , -0.0010308100609108806 , -0.13290241360664368 , -0.004785885103046894 , -0.10555124282836914 , 0.00889198575168848 } ,
	{ -0.05106813460588455 , -0.03703052178025246 , 0.2202073037624359 , -0.1299697607755661 , 0.1664598435163498 , -0.10862843692302704 , -0.004751609172672033 , 0.14834532141685486 , -0.007055607624351978 , 0.05429113656282425 , 0.06320059299468994 , -0.05743852257728577 , 0.20611824095249176 , 0.20523807406425476 , 0.1354142427444458 , 0.04573945701122284 } ,
	{ 0.08539736270904541 , -0.11508973687887192 , 0.056228574365377426 , -0.1945047676563263 , -0.1976633369922638 , -0.34413275122642517 , -0.24912622570991516 , -0.18910783529281616 , -0.006662376690655947 , 0.010783391073346138 , 0.15925414860248566 , -0.007231981493532658 , -0.0426742248237133 , 0.2753080725669861 , -0.08997044712305069 , 0.27243608236312866 } ,
	{ -0.4223073422908783 , 0.15819138288497925 , -0.021827368065714836 , -0.0793297290802002 , -0.18124613165855408 , 0.08541671186685562 , 0.16582255065441132 , 0.23514486849308014 , -0.3939708471298218 , 0.06493153423070908 , 0.0682312399148941 , -0.052506569772958755 , 0.017025059089064598 , 0.1984284520149231 , -0.08805212378501892 , 0.03797454014420509 } ,
	{ 0.10808299481868744 , 0.002036291640251875 , 0.2644447982311249 , 0.0548073872923851 , -0.16367007791996002 , -0.04414575919508934 , 0.0887373834848404 , -0.2524062395095825 , -0.01274387538433075 , -0.17318011820316315 , -0.09775009751319885 , 0.018836477771401405 , -0.047511737793684006 , -0.24697527289390564 , 0.03706257417798042 , 0.09176676720380783 } ,
	{ -0.1434595286846161 , 0.2130735069513321 , -0.22065375745296478 , 0.02994384802877903 , -0.15145833790302277 , 0.04892389103770256 , -0.19030463695526123 , -0.0899430587887764 , -0.027038682252168655 , -0.3477979600429535 , 0.16346365213394165 , 0.19022278487682343 , 0.09233319014310837 , -0.19812367856502533 , -0.14600971341133118 , 0.0116091538220644 } ,
	{ -0.04669420048594475 , -0.05444616824388504 , -0.05835287272930145 , 0.06394220888614655 , -0.1687399446964264 , -0.02648422308266163 , -0.1214405819773674 , 0.10603559017181396 , 0.250819593667984 , 0.09010875970125198 , 0.08948023617267609 , -0.05017458274960518 , -0.14186431467533112 , 0.10459014028310776 , -0.0891883447766304 , -0.24977345764636993 } ,
	{ 0.0453866645693779 , -0.05427088215947151 , -0.08106336742639542 , 0.1081610843539238 , 0.1002546101808548 , -0.16067083179950714 , -0.09221477061510086 , 0.21063125133514404 , -0.36519715189933777 , 0.243548184633255 , 0.05404523015022278 , 0.038337260484695435 , 0.040166012942790985 , -0.03571291267871857 , -0.07056205719709396 , -0.02752167358994484 } ,
	{ 0.11137500405311584 , 0.018844768404960632 , 0.052645258605480194 , -0.4110706150531769 , -0.16599981486797333 , -0.19731754064559937 , 0.09307726472616196 , -0.06953106820583344 , -0.22270098328590393 , 0.16961203515529633 , -0.04518512636423111 , 0.12953448295593262 , 0.12931397557258606 , 0.02806473895907402 , 0.26229146122932434 , -0.09814273566007614 } ,
	{ -0.07519812136888504 , -0.08485914021730423 , 0.08446460962295532 , 0.29369762539863586 , -0.020812131464481354 , -0.04921110346913338 , 0.016060175374150276 , -0.06064436584711075 , -0.1235307902097702 , 0.04145733639597893 , 0.02952837571501732 , -0.02289031818509102 , -0.22692665457725525 , -0.27016061544418335 , 0.08820276707410812 , -0.15973487496376038 } ,
	{ 0.09195995330810547 , -0.09444332122802734 , 0.02773306891322136 , 0.23548561334609985 , -0.10821418464183807 , 0.024448230862617493 , -0.11661037802696228 , 0.27325356006622314 , -0.09316045045852661 , -0.05300356075167656 , 0.024310721084475517 , 0.09771467745304108 , -0.19478444755077362 , 0.022681714966893196 , -0.020202938467264175 , 0.22713707387447357 } ,
	{ -0.2543289065361023 , -0.07553171366453171 , 0.023609666153788567 , -0.07843654602766037 , 0.060156792402267456 , -0.0784870833158493 , 0.060526106506586075 , 0.023648107424378395 , 0.02466883324086666 , -0.000785587471909821 , -0.32704105973243713 , -0.07966676354408264 , 0.199144646525383 , -0.3417050242424011 , 0.04867894574999809 , 0.1510627120733261 } ,
	{ -0.1752011477947235 , 0.30138713121414185 , -0.1430678814649582 , -0.3310965299606323 , 0.07477974146604538 , 0.159920334815979 , -0.03845193609595299 , -0.0365607775747776 , 0.08511681109666824 , -0.11052380502223969 , 0.058166589587926865 , -0.10660014301538467 , -0.026070119813084602 , 0.010493723675608635 , 0.024537358433008194 , -0.03101377934217453 } ,
	{ 0.17744186520576477 , 0.0006556583102792501 , -0.24375462532043457 , -0.01898212544620037 , 0.16543307900428772 , 0.14642050862312317 , 0.10479041934013367 , 0.02839984931051731 , 0.04788999259471893 , 0.11227727681398392 , 0.084440216422081 , 0.1810668706893921 , 0.033638760447502136 , 0.07341049611568451 , -0.014875557273626328 , 0.021373765543103218 } ,
	{ -0.09338536113500595 , -0.06003471091389656 , 0.0007026864332146943 , 0.14206919074058533 , 0.13614220917224884 , -0.01004073116928339 , 0.01616678386926651 , 0.07795116305351257 , -0.014733759686350822 , -0.09210860729217529 , -0.15152262151241302 , 0.11126882582902908 , -0.0034791019279509783 , -0.027862006798386574 , -0.18042318522930145 , -0.24010026454925537 } ,
	{ 0.014381885528564453 , 0.24664245545864105 , 0.17864565551280975 , 0.22894883155822754 , 0.18898609280586243 , -0.049215711653232574 , -0.0010358686558902264 , -0.24174536764621735 , -0.09158797562122345 , -0.2376074194908142 , -0.051502328366041183 , 0.2942497432231903 , -0.07533774524927139 , 0.0767165943980217 , -0.0004909430863335729 , 0.1877448856830597 }
};


float32 gru_bias_update[2][16]=
{
	{ -0.0012516360729932785 , 0.001855848589912057 , 0.0012834130320698023 , 0.00043136964086443186 , 0.0012852333020418882 , -0.0019932163413614035 , -0.00042642815969884396 , -0.0018775791395455599 , -0.00174499093554914 , 0.000979327131062746 , 0.0013994225300848484 , -0.001981644658371806 , -0.001836045179516077 , -0.0015688720159232616 , -0.001832007197663188 , -0.0019648626912385225 } ,
	{ -0.0012516360729932785 , 0.001855848589912057 , 0.0012834130320698023 , 0.00043136964086443186 , 0.0012852333020418882 , -0.0019932163413614035 , -0.00042642815969884396 , -0.0018775791395455599 , -0.00174499093554914 , 0.000979327131062746 , 0.0013994225300848484 , -0.001981644658371806 , -0.001836045179516077 , -0.0015688720159232616 , -0.001832007197663188 , -0.0019648626912385225 }
};
float32 gru_bias_reset[2][16]=
{
	{ 0.0013942322693765163 , -0.0019455673173069954 , -0.0017126410966739058 , 0.0012856973335146904 , 0.001399328000843525 , 0.0017360576894134283 , 0.0019125036196783185 , -0.0015448739286512136 , 0.00193567865062505 , -0.0011466684518381953 , 0.0014450703747570515 , 0.0015716459602117538 , 0.001668916898779571 , 0.0018391830381006002 , -0.0017769511323422194 , 0.0019791133236140013 } ,
	{ 0.0013942322693765163 , -0.0019455673173069954 , -0.0017126410966739058 , 0.0012856973335146904 , 0.001399328000843525 , 0.0017360576894134283 , 0.0019125036196783185 , -0.0015448739286512136 , 0.00193567865062505 , -0.0011466684518381953 , 0.0014450703747570515 , 0.0015716459602117538 , 0.001668916898779571 , 0.0018391830381006002 , -0.0017769511323422194 , 0.0019791133236140013 }
};
float32 gru_bias_candidate[2][16]=
{
	{ -0.001569232321344316 , -0.0017463064286857843 , -0.0017661929596215487 , 0.0015029148198664188 , -0.0016130483709275723 , 0.0019195089116692543 , 0.0016533859306946397 , 0.0008704847423359752 , -0.001465124310925603 , 0.0014649226795881987 , 0.0015824835281819105 , 0.0002802566741593182 , -0.0015992794651538134 , -0.0012847634498029947 , 0.0016494407318532467 , -0.001957477303221822 } ,
	{ -0.0015121049946174026 , -0.001722707413136959 , -0.0016786805354058743 , 0.001458318205550313 , -0.001610218663699925 , 0.0018922751769423485 , 0.001731737283989787 , 0.0009453119710087776 , 0.0018818445969372988 , 0.0016537024639546871 , 0.0015534351114183664 , -0.00173368735704571 , -0.0013784444890916348 , -0.001219629542902112 , -0.0010048283729702234 , -0.0019222012488171458 }
};







// float32 gru_kernel_update[2][2] = {{ 0.835087  , -0.12789446},
//                                    {-0.23773873,  0.76658386}};

// float32 gru_kernel_reset[2][2] = {{-0.09222895, -0.8328917},
//                                    { -0.4377819,   0.3956514}};

// float32 gru_kernel_candidate[2][2] = {{ -0.47992375,  0.06584746},
//                                    {-0.74847084, -0.2631657}};

// float32 gru_recurrent_kernel_update[2][2] = {{0.08843136, -0.7975634},
//                                              { 0.34714857, -0.33201376}};

// float32 gru_recurrent_kernel_reset[2][2] = {{  0.04695668, -0.21810985},
//                                              {   0.51402783, -0.23337203}};

// float32 gru_recurrent_kernel_candidate[2][2] =  {{  0.5031464,   0.23052002},
//                                              { -0.6287034,  -0.23515847}};


// float32 gru_bias_update[2][2] = {{0,0},{0,0}};

// float32 gru_bias_reset[2][2] = {{0,0},{0,0}};

// float32 gru_bias_candidate[2][2] = {{0,0},{0,0}};



