#include <stdio.h>
typedef float float32;
#include "hifi_model_trained_hdr.h"

float32 filter[3][3][2][4] ={{{{ 0.26515618, -0.05523992,  0.05650535,  0.22132573},
   {-0.07051936, -0.26950502,  0.20198515,  0.20283166}},

  {{-0.0106473,   0.16892186,  0.06008744,  0.23631677},
   {-0.24421963, -0.11222148, -0.19911258, -0.30906868}},

  {{-0.20745835, -0.31471342,  0.22926411, -0.13811652},
   {-0.15879893, -0.15204391,  0.29180965,  0.12051138}}},


 {{{ 0.23573104,  0.2916408,  -0.16871183, -0.31795034},
   { 0.00182247,  0.14369011,  0.33140197, -0.25631618}},

  {{-0.2911644,  -0.06803322,  0.2523764,  -0.0882833 },
   {-0.02290949,  0.25023922,  0.10395026, -0.28441256}},

  {{ 0.14907718,  0.31499735, -0.21922255,  0.21370152},
   {-0.0939614,   0.21580443,  0.17905524,  0.11123562}}},


 {{{ 0.06305304,  0.08699951, -0.30013078, -0.3185448 },
   { 0.0316503,   0.11564937,  0.04593363, -0.03601885}},

  {{-0.0452764,   0.26109675, -0.18588123, -0.23414788},
   { 0.305589,    0.14475235,  0.06134072,  0.18995383}},

  {{ 0.05642295,  0.3264309,   0.26323596,  0.20533946},
   { 0.03176522, -0.31215614,  0.08329526,  0.3312045 }}}};



float32 conv2d_bias[4] =
	{-0.0019819564186036587, -0.0019986669067293406, 0.001968533731997013, 0.00199210736900568};